<?xml version="1.0"?>
<opencv_storage>
<my_svm type_id="opencv-ml-svm">
  <svm_type>C_SVC</svm_type>
  <kernel><type>RBF</type>
    <gamma>8.9999999999999997e-002</gamma></kernel>
  <C>10.</C>
  <term_criteria><epsilon>1.1920928955078125e-007</epsilon>
    <iterations>2147483647</iterations></term_criteria>
  <var_all>324</var_all>
  <var_count>324</var_count>
  <class_count>2</class_count>
  <class_labels type_id="opencv-matrix">
    <rows>1</rows>
    <cols>2</cols>
    <dt>i</dt>
    <data>
      0 1</data></class_labels>
  <sv_total>76</sv_total>
  <support_vectors>
    <_>
      1.25267997e-001 1.29703641e-001 2.08486870e-001 2.48387918e-001
      1.12468258e-001 2.18302041e-001 1.78936779e-001 9.43938047e-002
      5.20387478e-002 1.77863017e-001 9.44513530e-002 1.30540341e-001
      1.72233149e-001 2.11007625e-001 1.79419667e-001 2.48387918e-001
      2.48387918e-001 1.80786029e-001 1.09596252e-001 1.50874868e-001
      2.17756242e-001 1.33975074e-001 1.16797395e-001 1.92471832e-001
      1.47425041e-001 9.91504267e-002 6.15620054e-002 8.61482248e-002
      1.01947680e-001 1.83851138e-001 1.58009812e-001 1.41787499e-001
      1.82563737e-001 2.33005375e-001 2.48387918e-001 6.04671575e-002
      3.04006822e-002 6.31773891e-003 3.68082598e-002 2.88217776e-002
      1.15762591e-001 3.45089674e-001 2.87633866e-001 7.99243152e-002
      1.86445303e-002 5.40601127e-002 6.46853540e-003 5.02959937e-002
      5.08585386e-002 2.47002855e-001 3.63913506e-001 3.63913506e-001
      1.40942708e-001 1.64936893e-002 2.00054515e-002 7.74163520e-003
      3.62444706e-002 2.09861975e-002 3.63289192e-002 1.23451062e-001
      1.56222358e-001 6.83148950e-002 1.79755855e-002 3.09664868e-002
      5.52312983e-003 4.27277945e-002 6.96429610e-002 1.84620157e-001
      3.63913506e-001 3.63913506e-001 2.47505292e-001 3.34592201e-002
      5.00731133e-002 8.46327562e-003 1.96298826e-002 8.32767561e-002
      2.38491833e-001 3.17381591e-001 3.17381591e-001 1.44462809e-001
      3.50139588e-002 5.47160655e-002 2.97341403e-002 1.58309732e-002
      1.09325767e-001 1.68490335e-001 1.65954232e-001 1.70140281e-001
      1.25948906e-001 5.27803078e-002 4.41238359e-002 3.50539759e-002
      2.36135554e-002 1.33658260e-001 3.17381591e-001 3.17381591e-001
      3.17381591e-001 1.92538306e-001 3.91581282e-002 7.84946680e-002
      7.59315863e-002 4.15542424e-002 8.03034753e-002 2.26692513e-001
      3.17381591e-001 1.88167930e-001 1.12565443e-001 6.47296011e-002
      7.28738531e-002 1.19322628e-001 1.21628977e-001 4.18061540e-002
      2.16690361e-001 2.45887160e-001 2.45887160e-001 1.08404361e-001
      6.30260855e-002 6.86467290e-002 8.64793509e-002 1.14443257e-001
      7.72731155e-002 2.45887160e-001 2.45887160e-001 2.45887160e-001
      1.74246669e-001 8.15744475e-002 1.33387536e-001 1.44257069e-001
      1.51583731e-001 8.43383893e-002 2.45887160e-001 2.26133406e-001
      2.45887160e-001 8.18204284e-002 7.98819214e-002 1.69071987e-001
      9.98241529e-002 1.09920286e-001 5.04874624e-002 2.45887160e-001
      1.47948340e-001 2.45887160e-001 1.95767254e-001 2.00134724e-001
      1.77639034e-002 8.29457119e-003 1.53211877e-002 1.09097911e-002
      4.26782556e-002 6.80924580e-002 1.16353378e-001 6.02919534e-002
      3.25345695e-002 2.52778269e-002 1.30201969e-002 5.44063225e-002
      3.47058177e-001 3.47058177e-001 3.47058177e-001 3.47058177e-001
      2.59672731e-001 8.21557790e-002 2.52191089e-002 1.84800029e-002
      2.67449990e-002 1.16748977e-002 4.18401659e-002 3.39968801e-002
      6.75639138e-002 4.47511338e-002 4.21605036e-002 2.95332260e-002
      6.78621158e-002 9.73553658e-002 3.47058177e-001 3.47058177e-001
      3.47058177e-001 1.17477693e-001 5.17141335e-002 7.41567612e-002
      2.20999885e-002 2.95237452e-002 4.17539515e-002 2.86625862e-001
      2.86625862e-001 2.86625862e-001 2.59592056e-001 8.73377994e-002
      2.81260572e-002 8.44848156e-002 8.11349675e-002 4.43293378e-002
      1.43611729e-001 2.37867832e-001 2.47750029e-001 1.15324862e-001
      6.87628016e-002 4.90815863e-002 1.94907598e-002 6.02067485e-002
      5.21717705e-002 2.86625862e-001 2.86625862e-001 2.86625862e-001
      1.09541334e-001 3.97468992e-002 2.22883765e-002 6.71233907e-002
      7.47365206e-002 4.86028679e-002 2.11194947e-001 2.86625862e-001
      2.20946863e-001 1.71309829e-001 9.48603228e-002 5.84310070e-002
      7.30606616e-002 9.53243300e-002 1.29882574e-001 9.15962383e-002
      2.64438093e-001 1.01230055e-001 8.21979567e-002 8.30043554e-002
      7.84143582e-002 1.16034456e-001 1.88622251e-001 2.04533517e-001
      1.04453020e-001 2.64438093e-001 8.33587125e-002 9.46216509e-002
      1.40113577e-001 1.21199273e-001 4.09400947e-002 1.02239460e-001
      2.64438093e-001 2.64438093e-001 2.64438093e-001 1.92005605e-001
      1.27649665e-001 1.91724554e-001 9.48707312e-002 6.45830184e-002
      1.93343431e-001 2.38768384e-001 1.66033030e-001 2.64438093e-001
      2.64438093e-001 1.41769260e-001 1.64474204e-001 4.24253084e-002
      2.17731968e-002 3.53494100e-002 4.14949581e-002 3.40588242e-002
      3.27704698e-002 2.04979293e-002 2.72281189e-002 3.70850749e-002
      3.65610458e-002 1.70285199e-002 5.98342754e-002 7.45239332e-002
      4.08325285e-001 4.08325285e-001 2.53404379e-001 4.82415482e-002
      4.55066748e-002 4.51882258e-002 2.25755721e-002 3.77829261e-002
      5.50037287e-002 7.91486427e-002 8.08822885e-002 4.56605293e-002
      2.74806954e-002 4.28527333e-002 4.24664058e-002 1.84224769e-002
      2.45784093e-002 4.08325285e-001 4.08325285e-001 4.08325285e-001
      1.92002505e-001 4.53324914e-002 7.14366660e-002 5.85402325e-002
      1.85514931e-002 5.34110218e-002 3.50469798e-002 3.53976041e-001
      3.53976041e-001 2.38685086e-001 4.85218912e-002 3.04093882e-002
      1.47601562e-002 3.66605297e-002 4.56032231e-002 2.81702783e-002
      1.87311202e-001 2.98428357e-001 1.48887143e-001 1.18368626e-001
      9.44054052e-002 7.98905119e-002 1.84159800e-002 1.19940229e-002
      3.29764634e-001 3.53976041e-001 3.53976041e-001 1.27064258e-001
      2.41611842e-002 2.34963391e-002 3.03831641e-002 5.13289943e-002
      2.82268263e-002 5.29210791e-002 1.66287243e-001 2.70230114e-001
      7.75627643e-002 5.66283092e-002 3.77083644e-002 7.45277703e-002</_>
    <_>
      1.09189406e-001 2.28153691e-002 3.49179916e-002 5.53175360e-002
      4.74831946e-002 7.44350106e-002 2.89047480e-001 1.51756495e-001
      1.17877051e-001 1.85554713e-001 7.64503926e-002 8.12734812e-002
      1.01967104e-001 6.49767220e-002 3.53727788e-002 2.60449182e-002
      4.77313101e-002 3.10071945e-001 7.54970163e-002 2.89551392e-002
      7.20436499e-002 1.71357289e-001 9.98211429e-002 3.32401395e-001
      3.32401395e-001 1.78693131e-001 8.61953273e-002 1.95994437e-001
      1.13467835e-001 2.48086691e-001 3.32401395e-001 1.44809023e-001
      1.39912918e-001 2.12524638e-001 7.30459318e-002 2.53106713e-001
      2.42969885e-001 7.79554322e-002 4.46686372e-002 5.57063594e-002
      6.89525083e-002 4.91999872e-002 3.01892087e-002 6.32182285e-002
      2.72800952e-001 2.15861276e-001 5.47714606e-002 3.64603288e-002
      5.39381653e-002 4.98870909e-002 3.38269919e-002 6.65871501e-002
      1.17276080e-001 2.72800952e-001 2.49903813e-001 1.76878184e-001
      2.26480752e-001 2.67702252e-001 1.61651820e-001 1.05014510e-001
      3.14654261e-002 1.00269496e-001 2.72800952e-001 2.14796126e-001
      1.80785432e-001 2.45056108e-001 2.60577470e-001 1.72908917e-001
      9.48980302e-002 1.02804691e-001 1.43176451e-001 2.72800952e-001
      1.38809606e-001 4.82788384e-002 4.39112894e-002 9.36203897e-002
      8.00626278e-002 2.77574491e-002 1.08463705e-001 1.89282775e-001
      2.89126784e-001 8.83714780e-002 3.55669260e-002 3.61682065e-002
      4.00189683e-002 5.06160930e-002 2.85188723e-002 7.75857866e-002
      2.07241908e-001 2.89126784e-001 1.08731568e-001 9.12611187e-002
      2.27553546e-001 2.89126784e-001 2.76126057e-001 1.25748128e-001
      2.11541042e-001 2.62872428e-001 2.89126784e-001 8.66488144e-002
      1.68732461e-002 5.66506237e-002 5.42091578e-002 7.88053945e-002
      8.28867629e-002 1.98215470e-001 2.89126784e-001 2.89126784e-001
      3.21785882e-002 1.14864772e-002 4.72862944e-002 1.26863793e-001
      8.92109796e-002 2.86623240e-001 2.86623240e-001 9.51818675e-002
      3.18890177e-002 1.06792115e-001 6.16182610e-002 1.43380851e-001
      2.78735638e-001 1.07968435e-001 1.86643153e-001 2.86623240e-001
      8.65400508e-002 8.51727128e-002 3.99367139e-002 1.83422156e-002
      3.00280936e-002 1.78860962e-001 2.86623240e-001 2.40820706e-001
      2.86623240e-001 6.20096885e-002 3.42193879e-002 1.03260837e-001
      8.31381977e-002 9.79478359e-002 2.86623240e-001 2.86623240e-001
      1.86307728e-001 1.99192807e-001 7.23843127e-002 7.21939951e-002
      1.63731501e-001 1.64370716e-001 2.54361957e-001 2.54361957e-001
      1.28381267e-001 1.03867754e-001 4.54693101e-002 9.61458609e-002
      1.01086937e-001 9.28890705e-002 1.66121826e-001 2.54361957e-001
      2.54361957e-001 2.04451308e-001 1.28427133e-001 4.83657084e-002
      6.32206500e-002 6.54555783e-002 1.65122092e-001 1.59534931e-001
      2.22555950e-001 2.54361957e-001 2.17748001e-001 1.00398585e-001
      5.30837886e-002 1.08043939e-001 8.79903659e-002 1.34792790e-001
      2.01598197e-001 2.54361957e-001 2.54361957e-001 2.54361957e-001
      1.42731830e-001 2.80655399e-002 9.02180523e-002 4.47963215e-002
      6.35199621e-002 8.90455693e-002 2.59709060e-001 2.59709060e-001
      2.30438367e-001 1.23261824e-001 8.96290094e-002 6.23376407e-002
      7.55757913e-002 7.92729929e-002 4.90842350e-002 2.34209999e-001
      1.14605099e-001 1.21311992e-001 8.02864954e-002 1.25651389e-001
      1.04390629e-001 1.30725175e-001 1.69234693e-001 2.35764295e-001
      2.59709060e-001 2.59709060e-001 2.59709060e-001 2.34074205e-001
      6.82797953e-002 2.68294699e-002 4.48475182e-002 1.14808805e-001
      8.41802061e-002 2.46482164e-001 2.59709060e-001 2.59709060e-001
      2.11733565e-001 8.99619162e-002 3.74123752e-002 6.32408410e-002
      4.78898175e-002 6.06263019e-002 2.98841335e-002 2.48780459e-001
      2.91698158e-001 6.79331422e-002 3.30592468e-002 1.68365650e-002
      2.83174384e-002 1.24793693e-001 1.79233924e-001 1.16434559e-001
      2.91698158e-001 2.91698158e-001 9.18938145e-002 4.19910327e-002
      6.24643676e-002 8.26749280e-002 6.29639998e-002 9.58561376e-002
      4.72120643e-002 1.82665572e-001 2.91698158e-001 1.43934190e-001
      2.08781257e-001 3.51594910e-002 4.16778997e-002 1.73182622e-001
      1.86204150e-001 1.10575967e-001 1.94092363e-001 2.91698158e-001
      1.89422905e-001 2.91698158e-001 1.54656142e-001 1.96011126e-001
      1.58404693e-001 1.63794413e-001 1.57556608e-001 2.21163511e-001
      2.14270532e-001 1.18497096e-001 5.78557365e-002 1.41249776e-001
      1.47808239e-001 1.42625585e-001 2.21163511e-001 1.66042000e-001
      2.21163511e-001 2.21163511e-001 1.55250713e-001 4.33417894e-002
      1.06646016e-001 9.47122425e-002 1.92451313e-001 1.45836785e-001
      1.48143381e-001 1.32355466e-001 2.18724757e-001 1.43472865e-001
      1.68298647e-001 2.21163511e-001 2.21163511e-001 1.52911395e-001
      1.76404759e-001 1.58580914e-001 1.87661082e-001 2.21163511e-001
      1.43942624e-001 9.70010534e-002 1.12447351e-001 1.64794296e-001
      1.01989768e-001 1.96095884e-001 1.53106555e-001 2.55108446e-001
      2.55108446e-001 2.55108446e-001 7.37032518e-002 3.42345312e-002
      4.80705015e-002 5.20445667e-002 4.72462215e-002 6.54650629e-002
      1.88939959e-001 2.55108446e-001 2.55108446e-001 9.86648723e-002
      2.47183219e-002 4.91303205e-002 6.48520142e-002 1.79951027e-001
      2.55108446e-001 2.00953692e-001 2.55108446e-001 2.55108446e-001
      1.29003644e-001 7.44936690e-002 5.92970178e-002 5.17343096e-002
      1.04181208e-001 2.24774972e-001 1.21152684e-001 2.55108446e-001
      2.55108446e-001 1.43205896e-001 6.30259067e-002 4.31345999e-002</_>
    <_>
      1.46519586e-001 1.61136657e-001 2.22205110e-002 8.01014341e-003
      8.71397555e-003 1.62086748e-002 4.96808439e-002 8.53264257e-002
      6.26899004e-002 2.22788170e-001 1.39765397e-001 3.56025137e-002
      1.21418322e-002 9.20502283e-003 1.85918435e-002 6.60507157e-002
      7.52558857e-002 9.18205082e-002 3.11524719e-001 3.11524719e-001
      2.39120334e-001 8.06693435e-002 3.52593325e-002 1.27290219e-001
      1.68732554e-001 1.10092074e-001 1.27885118e-001 3.11524719e-001
      3.11524719e-001 1.08960159e-001 5.02168350e-002 1.26416698e-001
      3.11524719e-001 3.11524719e-001 2.32061937e-001 2.02029377e-001
      1.89845741e-001 1.32227838e-001 7.46119767e-002 4.60592732e-002
      8.02817941e-002 1.01565748e-001 1.15114927e-001 6.72648400e-002
      1.35230228e-001 5.67237251e-002 9.57088470e-002 7.37174079e-002
      6.08640835e-002 1.01198636e-001 9.41717476e-002 8.84099305e-002
      1.32426649e-001 1.12231016e-001 2.55190879e-001 1.21957012e-001
      8.22718516e-002 1.12536311e-001 2.79091388e-001 2.79091388e-001
      2.79091388e-001 2.79091388e-001 2.55784124e-001 4.74307463e-002
      4.45070378e-002 4.78210412e-002 6.46065697e-002 2.79091388e-001
      2.79091388e-001 2.79091388e-001 2.63470829e-001 1.19964175e-001
      1.18961431e-001 8.00841078e-002 5.63709028e-002 7.71241635e-002
      1.04619481e-001 5.95058165e-002 1.60220325e-001 2.90192038e-001
      2.44012475e-001 1.24856547e-001 2.16200147e-002 2.12792996e-002
      6.52238801e-002 1.13825403e-001 1.06613301e-001 2.11477682e-001
      2.90192038e-001 2.55696326e-001 6.82038963e-002 2.59937122e-002
      3.20298113e-002 3.30093130e-002 9.75080952e-002 1.63516805e-001
      2.90192038e-001 2.90192038e-001 2.49240369e-001 1.00350827e-001
      6.14710990e-003 9.74010490e-003 1.41754244e-002 2.76337378e-002
      7.78716505e-002 2.90192038e-001 2.90192038e-001 2.90192038e-001
      2.61096328e-001 2.61096328e-001 2.61096328e-001 1.58435345e-001
      7.47278705e-002 1.34804830e-001 1.05659947e-001 9.15516391e-002
      7.94275627e-002 1.97378218e-001 1.44210771e-001 1.36998877e-001
      7.79291764e-002 1.15817159e-001 2.61096328e-001 2.61096328e-001
      1.92537263e-001 1.26463071e-001 1.77404165e-001 1.97245106e-001
      2.61096328e-001 2.38657027e-001 9.44571048e-002 6.59169555e-002
      4.82570603e-002 7.37650022e-002 7.53781721e-002 2.22020984e-001
      1.29311979e-001 1.87240288e-001 1.23297177e-001 5.63006997e-002
      1.45042017e-001 1.48330927e-001 1.53743535e-001 1.49667636e-001
      1.20755002e-001 1.84275843e-002 4.73474786e-002 6.28070906e-002
      1.38745919e-001 2.59230882e-001 2.59230882e-001 1.97848350e-001
      1.27416760e-001 3.93341668e-002 6.57336228e-003 3.26861739e-002
      5.38318083e-002 1.29110336e-001 2.35257715e-001 2.59230882e-001
      1.91830739e-001 5.31561300e-002 1.90990746e-001 7.04155415e-002
      7.90559277e-002 6.44143075e-002 9.67507958e-002 2.30257511e-001
      2.59230882e-001 2.41093934e-001 1.83399469e-001 1.07493393e-001
      5.06853275e-002 6.63885549e-002 9.68355909e-002 2.59230882e-001
      2.59230882e-001 2.59230882e-001 2.59230882e-001 1.13955416e-001
      3.87496650e-002 1.03466129e-002 2.86832452e-002 5.50909825e-002
      1.15148038e-001 2.16298774e-001 2.68434554e-001 2.39606023e-001
      7.93569088e-002 3.41912508e-002 3.64002818e-003 3.26549564e-003
      1.73572090e-003 8.64724256e-003 1.87919941e-002 1.25898704e-001
      2.06493333e-001 1.53268918e-001 1.36972263e-001 7.83314630e-002
      9.50450823e-002 1.31389990e-001 3.12620461e-001 3.12620461e-001
      3.12620461e-001 3.12620461e-001 1.58070832e-001 4.81187627e-002
      5.84468525e-003 2.52618231e-002 1.04909493e-002 9.14490223e-002
      2.17065558e-001 3.07547480e-001 2.64672369e-001 1.47217229e-001
      1.25093907e-001 8.58418345e-002 1.43983155e-001 1.35867849e-001
      6.20518103e-002 5.54486997e-002 9.98512283e-002 1.96315229e-001
      2.46606871e-001 1.52617157e-001 1.21552259e-001 1.10268444e-001
      9.20990407e-002 3.60781141e-002 1.20236939e-002 8.04836452e-002
      2.21764684e-001 2.71085948e-001 2.83259183e-001 1.68950140e-001
      2.44366899e-002 2.30130684e-002 5.51255979e-002 4.80231456e-002
      2.13359907e-001 2.83259183e-001 2.83259183e-001 2.83259183e-001
      2.32586563e-001 4.37983014e-002 2.54693609e-002 1.68935470e-002
      9.79358237e-003 1.02049507e-001 2.83259183e-001 2.83259183e-001
      1.88100785e-001 1.64848655e-001 9.48131904e-002 5.92212453e-002
      6.47995993e-002 1.00470856e-001 1.21780857e-001 1.26771569e-001
      1.46204099e-001 2.73026466e-001 1.88869700e-001 8.23257864e-002
      5.64569272e-002 2.04963595e-001 2.73026466e-001 2.73026466e-001
      2.46232346e-001 1.54681981e-001 2.73026466e-001 2.73026466e-001
      1.01648107e-001 3.53956185e-002 2.02658828e-002 1.79397613e-002
      2.85084136e-002 8.00592899e-002 2.72421986e-001 2.73026466e-001
      2.73026466e-001 1.05732709e-001 3.81543301e-002 5.34273349e-002
      1.00391693e-001 8.25162232e-002 9.86592174e-002 1.60545662e-001
      2.60922253e-001 1.28211319e-001 1.04513235e-001 9.26339105e-002
      2.29231045e-001 2.60922253e-001 2.60922253e-001 2.60922253e-001
      1.63939074e-001 4.61697727e-002 1.03216404e-002 4.00172994e-002
      4.02344279e-002 6.58355504e-002 2.49307930e-001 2.60922253e-001
      1.62221417e-001 8.85856673e-002 2.60922253e-001 1.77878037e-001
      8.44748467e-002 8.26384947e-002 9.81957018e-002 2.26366624e-001
      2.09405988e-001 1.81151778e-001 1.74410924e-001 6.12556785e-002
      1.43087227e-002 2.75520254e-002 4.30381857e-002 6.34793192e-002
      2.38325804e-001 2.60922253e-001 1.17229596e-001 6.81048632e-002</_>
    <_>
      5.16028218e-002 8.44150633e-002 1.32803798e-001 1.17211729e-001
      3.13177705e-001 2.52309293e-001 1.19213164e-001 4.25750986e-002
      7.13624284e-002 1.84108205e-002 2.39318702e-002 6.22978024e-002
      1.12096779e-001 2.79794335e-001 1.80375755e-001 6.34321049e-002
      3.75463739e-002 2.81828810e-002 6.66244924e-002 3.03383380e-001
      1.26358300e-001 3.13177705e-001 3.13177705e-001 3.13177705e-001
      1.55402601e-001 2.51345225e-002 7.04255775e-002 3.22292037e-002
      8.85864422e-002 7.13386163e-002 2.23118037e-001 3.13177705e-001
      1.88796356e-001 5.39755337e-002 2.90475488e-002 2.78452989e-002
      1.02854952e-001 1.70841757e-002 7.23549500e-002 2.05952704e-001
      2.29701847e-001 2.01772109e-001 6.31779879e-002 5.82892969e-002
      4.91678119e-002 1.46975920e-001 4.96660359e-002 7.89160430e-002
      1.88650042e-001 1.44533157e-001 1.80415958e-001 8.85786116e-002
      7.81617388e-002 1.03154123e-001 2.44082704e-001 5.84454462e-002
      5.91336563e-002 2.17487678e-001 2.55216181e-001 2.55216181e-001
      9.73802283e-002 1.24206923e-001 2.53861666e-001 2.55216181e-001
      7.29665980e-002 8.21235701e-002 1.78462505e-001 2.55216181e-001
      2.55216181e-001 1.83950216e-001 1.41461208e-001 2.55216181e-001
      9.19650570e-002 9.52657610e-002 1.66997060e-001 2.58447230e-001
      2.56417930e-001 1.64903462e-001 9.59261060e-002 5.86275943e-002
      9.82097387e-002 2.03901324e-002 4.27533314e-002 1.15447655e-001
      2.58447230e-001 2.58447230e-001 2.08655879e-001 8.62114727e-002
      2.64107101e-002 1.60473473e-002 1.87341198e-001 8.35375711e-002
      2.35491857e-001 2.58447230e-001 2.58447230e-001 2.11384594e-001
      2.13555157e-001 9.06453505e-002 1.89204320e-001 4.28150669e-002
      6.44181892e-002 1.26761958e-001 2.58447230e-001 2.58447230e-001
      1.81619525e-001 1.04003854e-001 5.51479124e-002 3.12457141e-002
      3.40654477e-002 9.11602303e-002 6.20643757e-002 2.54496723e-001
      3.44053417e-001 2.38420948e-001 1.18782878e-001 4.33464581e-003
      2.62812227e-002 3.91362719e-002 3.85137126e-002 2.11776420e-002
      1.49207458e-001 3.44053417e-001 1.38504937e-001 3.85216773e-002
      3.83543968e-003 3.32891233e-002 5.24323843e-002 5.83694167e-002
      1.44432917e-001 3.09846759e-001 3.44053417e-001 3.21852893e-001
      1.25435099e-001 8.28569103e-003 2.44206749e-002 5.92934452e-002
      9.66933891e-002 5.97762167e-002 1.61057994e-001 3.44053417e-001
      1.78026214e-001 8.37006494e-002 8.41933955e-003 4.05166782e-002
      1.26463920e-001 6.12067506e-002 1.75890010e-002 1.12533264e-001
      3.38734955e-001 1.46354347e-001 1.74021386e-002 3.16804014e-002
      1.88382730e-001 9.82475355e-002 5.73882200e-002 4.00705747e-002
      1.09825321e-001 3.38734955e-001 1.33084401e-001 4.41341698e-002
      3.94010060e-002 1.62428781e-001 5.10265343e-002 2.13794380e-001
      1.12334274e-001 2.57126212e-001 3.38734955e-001 2.23801255e-001
      7.35741705e-002 5.02565019e-002 1.27114803e-001 3.06088608e-002
      1.65794596e-001 1.19857751e-001 2.89944738e-001 3.38734955e-001
      1.88352451e-001 5.83958067e-002 4.68010455e-002 5.78891784e-002
      1.54132769e-001 7.85786882e-002 1.87238008e-001 2.75121480e-001
      2.96043694e-001 1.33107096e-001 1.50791466e-001 7.21884891e-002
      1.49768531e-001 5.39807305e-002 7.94967189e-002 8.14724118e-002
      2.46740878e-001 2.76381910e-001 1.23939998e-001 1.05496444e-001
      5.60625382e-002 4.42319885e-002 8.07239637e-002 8.48291889e-002
      1.67788491e-001 2.96043694e-001 2.96043694e-001 2.15247840e-001
      1.07070468e-001 7.43854120e-002 5.76436445e-002 4.06753570e-002
      9.82632786e-002 7.54625574e-002 2.57510930e-001 2.96043694e-001
      2.09253997e-001 1.12215810e-001 5.51656857e-002 4.13473323e-002
      7.17122033e-002 8.55743662e-002 2.46450543e-001 3.09384912e-001
      3.09384912e-001 2.39701420e-001 1.24305405e-001 1.77696403e-002
      2.13406701e-002 5.07135466e-002 1.11604087e-001 1.30979493e-001
      1.97207183e-001 3.09384912e-001 1.26669466e-001 9.44096968e-002
      1.27977664e-002 1.50120100e-002 8.47011283e-002 7.50688314e-002
      2.31143519e-001 3.09384912e-001 3.09384912e-001 1.50498733e-001
      1.34077817e-001 4.55057845e-002 3.37656215e-002 2.85690185e-002
      6.83999583e-002 1.46633998e-001 1.84840024e-001 3.00685495e-001
      9.26102698e-002 6.65393025e-002 1.63367856e-002 9.45967715e-003
      1.24157639e-002 1.43530712e-001 1.84446290e-001 2.72578210e-001
      2.72578210e-001 1.91405505e-001 1.22144856e-001 6.60369992e-002
      4.26047072e-002 1.09288786e-002 1.08349897e-001 1.61205307e-001
      2.48784646e-001 2.72578210e-001 1.97204292e-001 1.06572837e-001
      6.01532608e-002 2.50085630e-002 1.83659978e-002 1.47655755e-001
      2.70003080e-001 2.48901159e-001 2.72578210e-001 2.30303288e-001
      1.08236738e-001 3.20005566e-002 1.77837890e-002 7.94431753e-003
      1.03645995e-001 2.15473056e-001 1.56911418e-001 2.72578210e-001
      2.09892288e-001 9.04536173e-002 3.97486798e-002 1.68348029e-002
      4.48260419e-002 7.17423856e-002 1.38556644e-001 2.82125592e-001
      2.82125592e-001 2.82125592e-001 1.24487206e-001 6.48500323e-002
      2.54239403e-002 3.26202363e-002 6.47979826e-002 8.80087912e-002
      2.64638603e-001 2.82125592e-001 2.18239963e-001 1.03844553e-001
      4.26684842e-002 1.91830527e-002 2.35765595e-002 9.97334197e-002
      1.74351647e-001 1.58324271e-001 2.82125592e-001 2.82125592e-001
      1.51834846e-001 5.80965653e-002 2.29270738e-002 1.20799541e-001
      7.93007836e-002 9.67000872e-002 2.20737457e-001 2.82125592e-001
      2.21640766e-001 1.53444320e-001 4.25476916e-002 5.75434119e-002</_>
    <_>
      6.37163669e-002 3.81887369e-002 4.79632802e-002 1.72529712e-001
      2.72732824e-001 1.88995555e-001 9.57440212e-002 4.52099517e-002
      2.30682325e-002 1.20166592e-001 6.29828647e-002 8.52163136e-002
      1.83071509e-001 2.72732824e-001 2.49459192e-001 2.02087030e-001
      9.87494886e-002 4.38259579e-002 1.28969088e-001 4.32673022e-002
      6.17389008e-002 2.72732824e-001 2.72732824e-001 2.08547309e-001
      8.38297680e-002 4.89636809e-002 7.70596489e-002 2.72732824e-001
      6.03390113e-002 5.90801276e-002 2.72732824e-001 2.72732824e-001
      2.72732824e-001 1.32283241e-001 1.11924291e-001 1.57820806e-001
      1.01770967e-001 7.26044923e-002 9.75957960e-002 1.30434319e-001
      2.57440835e-001 2.57440835e-001 2.57440835e-001 2.08092093e-001
      9.73599702e-002 8.84281471e-002 4.26621698e-002 6.36176467e-002
      1.31064311e-001 1.75326943e-001 2.57440835e-001 2.57440835e-001
      2.57440835e-001 1.41704842e-001 1.58588350e-001 4.95564826e-002
      6.13409616e-002 1.73136458e-001 2.57440835e-001 2.57440835e-001
      1.60927311e-001 1.33811250e-001 1.40500709e-001 1.00972496e-001
      4.65041809e-002 5.45011088e-002 1.06680974e-001 1.52771875e-001
      2.09901899e-001 1.49315089e-001 1.66736588e-001 1.46617189e-001
      1.06119968e-001 6.81339130e-002 7.92974085e-002 1.74290806e-001
      1.70062363e-001 2.23294303e-001 2.04463378e-001 1.59284055e-001
      1.60179466e-001 7.35334456e-002 6.40797988e-002 1.30084872e-001
      2.58615702e-001 2.58615702e-001 2.21936151e-001 1.21652268e-001
      9.71135497e-002 1.20229259e-001 1.75965711e-001 6.08810484e-002
      4.57939543e-002 1.08253770e-001 1.69016734e-001 1.87085077e-001
      1.90163940e-001 1.66833699e-001 2.04609856e-001 1.75727576e-001
      6.18397929e-002 6.85992092e-002 2.58615702e-001 2.58615702e-001
      2.58615702e-001 1.76357865e-001 8.89641345e-002 1.67636588e-001
      7.67442733e-002 2.22933907e-002 7.94349536e-002 2.87235349e-001
      2.87235349e-001 1.93632424e-001 6.83287308e-002 3.65142450e-002
      7.50002936e-002 1.77855536e-001 2.20418200e-002 6.43779039e-002
      2.76599884e-001 2.87235349e-001 2.87235349e-001 1.97855249e-001
      9.29250568e-002 1.55499563e-001 3.55312079e-002 1.71941277e-002
      6.47668391e-002 1.85279191e-001 2.87235349e-001 1.42346442e-001
      5.98013811e-002 2.39971634e-002 2.79657282e-002 4.05707285e-002
      2.33817659e-002 7.17450753e-002 2.49078259e-001 2.87235349e-001
      2.87235349e-001 1.84589580e-001 5.66156693e-002 3.33870165e-002
      8.61274004e-002 2.41454504e-002 7.44555593e-002 1.34268522e-001
      3.02690655e-001 3.02690655e-001 1.98559746e-001 7.92134404e-002
      8.53307620e-002 8.11513513e-002 5.87128103e-002 7.52011687e-002
      1.01018921e-001 2.35313967e-001 1.68982223e-001 1.20859057e-001
      7.18861073e-002 8.08937252e-002 5.67007512e-002 3.88889126e-002
      1.11216836e-001 2.53491580e-001 3.02690655e-001 3.02690655e-001
      2.34144613e-001 5.69810905e-002 3.53061706e-002 7.26965815e-002
      6.39063120e-002 9.07535329e-002 1.61010295e-001 3.02690655e-001
      3.02690655e-001 1.84117869e-001 7.35955238e-002 5.50969951e-002
      1.10646993e-001 5.71461320e-002 5.25520854e-002 8.34962726e-002
      2.54433960e-001 1.92190796e-001 1.98000878e-001 1.24967471e-001
      1.12704501e-001 1.15618899e-001 6.98607415e-002 4.60654870e-002
      1.15487799e-001 2.10334495e-001 1.86471194e-001 1.96334973e-001
      1.69575974e-001 1.18037939e-001 5.55576868e-002 5.84155060e-002
      3.88913192e-002 1.66432485e-001 2.82667845e-001 2.82667845e-001
      2.45675862e-001 1.62613422e-001 5.44237345e-002 9.37816799e-002
      6.78064302e-002 9.19217914e-002 2.03401670e-001 2.82667845e-001
      2.82667845e-001 2.18233153e-001 2.12771818e-001 8.71230885e-002
      4.52214256e-002 3.12121417e-002 6.47326335e-002 1.79973885e-001
      3.16065341e-001 1.92979127e-001 7.60963559e-002 2.53944937e-002
      2.86341365e-002 2.69968156e-002 2.43603643e-002 7.34939054e-002
      2.94057161e-001 3.16065341e-001 3.16065341e-001 9.68723670e-002
      2.92174965e-002 4.18605246e-002 2.88803671e-002 2.81055830e-002
      4.86157089e-002 1.92726523e-001 3.16065341e-001 2.45251238e-001
      6.33845776e-002 3.56014781e-002 3.04867104e-002 2.27671359e-002
      1.69979818e-002 8.66104588e-002 2.76347369e-001 3.16065341e-001
      3.16065341e-001 1.08655766e-001 4.04059589e-002 5.06871678e-002
      5.54143339e-002 3.60300206e-002 5.54211140e-002 2.22892746e-001
      2.94748157e-001 2.94748157e-001 1.02852292e-001 2.20441800e-002
      2.40642559e-002 5.92939705e-002 6.88652620e-002 8.55318680e-002
      1.66131034e-001 2.94748157e-001 2.94748157e-001 1.75072998e-001
      6.94140643e-002 2.68412903e-002 3.39660421e-002 1.96634885e-002
      5.99733181e-002 2.11211622e-001 2.94748157e-001 2.94748157e-001
      1.32776991e-001 4.24912088e-002 2.10128445e-002 4.28847037e-002
      6.28730282e-002 1.10416688e-001 1.80807620e-001 2.94748157e-001
      2.94748157e-001 1.60306066e-001 7.80983940e-002 4.26367410e-002
      1.53772337e-002 3.77934314e-002 6.15109652e-002 8.25475156e-002
      2.92226076e-001 2.92226076e-001 1.46563485e-001 7.08892345e-002
      1.20786661e-002 3.83794978e-002 2.29982268e-002 7.02562258e-002
      1.49044156e-001 2.92226076e-001 2.92226076e-001 1.08650513e-001
      3.99516225e-002 2.49344092e-002 8.68967921e-002 3.82368937e-002
      1.00579381e-001 1.30090371e-001 2.92226076e-001 2.74176806e-001
      1.32367402e-001 5.04444093e-002 3.42576317e-002 2.92226076e-001
      1.55984191e-002 8.88278261e-002 2.48811156e-001 2.92226076e-001
      2.90573925e-001 1.56057984e-001 2.07903460e-002 7.41129071e-002</_>
    <_>
      4.36048985e-001 5.53594204e-003 4.70499275e-003 5.24014002e-004
      8.12887307e-003 1.37573830e-003 3.57777276e-003 3.04744230e-003
      4.36048985e-001 4.36048985e-001 2.47123297e-002 4.66474891e-002
      4.56511155e-002 6.80390224e-002 5.22788381e-003 7.87839852e-003
      5.20601496e-003 4.36048985e-001 1.79862026e-002 6.33447804e-003
      6.31255563e-003 8.56928702e-004 1.13743376e-002 1.50729192e-003
      7.74874166e-003 6.33539399e-003 2.01712921e-002 2.97875181e-002
      6.25030696e-002 7.13910311e-002 2.75078565e-001 3.59117895e-001
      8.90994221e-002 3.89596932e-002 1.22210933e-002 1.25020081e-002
      2.60497570e-001 6.45570308e-002 6.85546249e-002 1.24654070e-001
      6.05606772e-002 1.06095262e-002 1.84808895e-002 3.61127332e-002
      2.60497570e-001 2.60497570e-001 1.36450529e-001 1.06718861e-001
      2.11948797e-001 1.04808725e-001 4.69400100e-002 5.44552021e-002
      1.12676546e-001 2.60497570e-001 7.91641548e-002 1.37194976e-001
      1.36197731e-001 2.60497570e-001 2.60497570e-001 1.40469670e-001
      8.05658251e-002 4.15621661e-002 3.07792593e-002 2.10101113e-001
      2.25930467e-001 2.01634318e-001 2.60497570e-001 2.60497570e-001
      2.31354922e-001 1.39053866e-001 9.98750106e-002 1.72329322e-001
      2.64143348e-001 1.40420169e-001 7.18314424e-002 1.35957092e-001
      1.12771891e-001 5.45261391e-002 2.80653574e-002 7.84794614e-002
      2.64143348e-001 2.64143348e-001 1.35484293e-001 2.32386980e-002
      8.03944468e-002 1.63206905e-001 3.24223898e-002 2.78624911e-002
      6.52867481e-002 2.64143348e-001 2.64143348e-001 1.19678751e-001
      7.67281875e-002 2.22338289e-001 2.64143348e-001 2.43243322e-001
      5.82113825e-002 8.00728425e-002 2.64143348e-001 2.51899868e-001
      8.55561569e-002 4.61714529e-002 8.25189278e-002 2.64143348e-001
      1.55641317e-001 3.21061686e-002 4.18121144e-002 2.64143348e-001
      1.91881601e-002 1.12711573e-002 1.46546559e-002 1.73377269e-003
      4.40981202e-002 4.75677848e-003 1.31234778e-002 1.02028698e-002
      2.01998074e-002 2.36281306e-002 1.42068490e-001 9.47364941e-002
      3.80744815e-001 3.80744815e-001 3.80744815e-001 1.54726893e-001
      5.87273836e-002 1.23040453e-002 1.00600729e-002 2.73200637e-003
      7.35428650e-003 2.82651745e-004 6.11087494e-002 4.44960175e-003
      2.18333919e-002 9.04698949e-003 1.04552442e-002 8.42999816e-002
      6.87193498e-002 7.22122341e-002 3.80744815e-001 3.80744815e-001
      3.80744815e-001 1.41973391e-001 1.39852688e-001 6.65663108e-002
      2.49617808e-002 9.99347717e-002 1.00326099e-001 2.41397843e-001
      2.41397843e-001 2.41397843e-001 1.14059262e-001 5.42192832e-002
      6.02645352e-002 7.94118941e-002 1.53017834e-001 1.76576316e-001
      2.41397843e-001 2.41397843e-001 2.41397843e-001 1.41626716e-001
      9.84010324e-002 1.42667696e-001 1.06340624e-001 4.12883721e-002
      9.06063765e-002 2.41397843e-001 2.41397843e-001 2.41397843e-001
      1.50400758e-001 9.74055603e-002 9.06652212e-002 1.42035663e-001
      5.19757457e-002 1.27596647e-001 2.24537864e-001 2.41397843e-001
      2.32279360e-001 1.89816520e-001 9.90024433e-002 1.12680554e-001
      2.35206440e-001 1.40962511e-001 1.24591038e-001 1.83619633e-001
      2.35206440e-001 2.28296101e-001 7.90131688e-002 1.24965720e-001
      2.35206440e-001 2.35206440e-001 1.28179789e-001 8.45535100e-002
      1.06450744e-001 2.35206440e-001 1.56117037e-001 4.36985008e-002
      7.31838793e-002 2.35206440e-001 2.35206440e-001 1.21744834e-001
      9.96167809e-002 1.75230443e-001 2.35206440e-001 5.25043122e-002
      1.28418401e-001 1.05020270e-001 1.80283755e-001 2.35206440e-001
      1.52057052e-001 8.48456845e-002 1.37661189e-001 2.35206440e-001
      3.67006250e-002 5.89684509e-002 1.06615283e-001 2.26050973e-001
      2.30604485e-002 4.38520731e-003 1.31222093e-002 0. 7.38916323e-002
      3.99155449e-003 2.31130105e-002 9.61002521e-003 2.35863868e-002
      2.84096420e-001 1.66772809e-002 8.00827593e-002 3.70016575e-001
      3.70016575e-001 3.70016575e-001 1.79073423e-001 3.70016575e-001
      2.52432942e-001 4.64159958e-002 5.72657911e-003 1.71360876e-002 0.
      6.79028779e-002 4.96855890e-003 1.38131296e-002 8.97151418e-003
      4.74866852e-002 1.81277186e-001 2.13295780e-002 4.29866165e-002
      9.28846523e-002 2.26998284e-001 2.77835727e-001 6.55520409e-002
      1.82593301e-001 1.95672154e-001 2.49209210e-001 1.72299463e-002
      1.76031098e-001 2.49209210e-001 2.49209210e-001 2.49209210e-001
      2.27249891e-001 1.95581779e-001 1.35571510e-001 2.49209210e-001
      5.25828972e-002 2.21275330e-001 2.49209210e-001 2.49209210e-001
      2.46437028e-001 2.49209210e-001 1.56428665e-001 1.21264957e-001
      1.39729783e-001 9.82876308e-003 7.39107728e-002 6.75378218e-002
      6.95729405e-002 9.06587169e-002 5.46213277e-002 8.22624043e-002
      8.11797008e-002 1.83115721e-001 5.71890660e-002 1.01135172e-001
      1.72838062e-001 2.18007848e-001 9.51752067e-002 8.34610239e-002
      7.00661838e-002 7.11748973e-002 2.11518034e-001 1.42263517e-001
      6.89649656e-002 1.53869987e-001 2.60579914e-001 5.86233772e-002
      1.12532414e-001 5.22695594e-002 9.03760195e-002 2.22474277e-001
      1.42917439e-001 6.81566820e-002 1.09439082e-001 2.60579914e-001
      5.25248237e-002 1.06297255e-001 6.67411759e-002 1.25697330e-001
      2.11094573e-001 1.94081262e-001 1.13619484e-001 2.07241639e-001
      2.60579914e-001 2.19005793e-001 2.01150388e-001 5.75460158e-002
      6.45532757e-002 2.21932918e-001 1.77934021e-001 1.26539394e-001
      1.53803691e-001 2.60579914e-001 2.26084664e-001 2.44948015e-001
      7.10533634e-002 1.17419124e-001</_>
    <_>
      3.82780522e-001 1.04184169e-002 3.63657461e-003 1.89685938e-003
      5.70199220e-003 4.44348529e-003 2.10370240e-003 1.95440836e-002
      3.82780522e-001 3.82780522e-001 1.81680340e-002 5.56913912e-002
      2.81797275e-002 6.87249973e-002 7.09491875e-003 4.95028403e-003
      3.04913521e-002 3.82780522e-001 1.26519233e-001 1.72723737e-003
      2.39633350e-003 2.35899026e-003 1.81575380e-002 1.54136925e-003
      3.06755793e-003 5.03411796e-003 1.28440514e-001 2.39633322e-001
      4.88522127e-002 1.87633649e-001 2.81629890e-001 3.82780522e-001
      1.05728373e-001 2.00088546e-002 3.43163237e-002 1.81878299e-001
      2.93743730e-001 7.04041347e-002 5.19953147e-002 2.69187074e-002
      9.15242434e-002 1.20993052e-002 4.11846302e-003 7.63903409e-002
      2.93743730e-001 2.93743730e-001 1.50335312e-001 1.98762957e-002
      4.18418832e-002 1.11040972e-001 1.56210642e-002 3.89013672e-003
      8.79279822e-002 2.93743730e-001 2.23717809e-001 1.09881371e-001
      1.76881269e-001 2.45289266e-001 2.93743730e-001 1.32119626e-001
      2.63295416e-002 7.48170391e-002 1.72574803e-001 2.93743730e-001
      1.32872969e-001 6.82167634e-002 1.47682592e-001 2.93743730e-001
      1.04901806e-001 4.36372086e-002 1.13001801e-001 2.19856605e-001
      3.16606849e-001 1.00439802e-001 1.77009180e-002 3.65422331e-002
      1.16355300e-001 2.07790285e-002 4.23364434e-003 5.90591729e-002
      3.16606849e-001 3.16606849e-001 1.91059291e-001 4.08455357e-002
      2.01161727e-002 9.79533643e-002 2.81003192e-002 1.39041319e-002
      3.72234248e-002 3.16606849e-001 2.90490746e-001 7.79688209e-002
      3.90737019e-002 6.98054209e-002 2.45497674e-001 8.67396817e-002
      7.22938031e-002 1.01611517e-001 1.90830365e-001 3.16606849e-001
      1.66556761e-001 1.99449375e-001 1.51069418e-001 1.28784925e-001
      1.06863454e-001 1.15719199e-001 1.41363680e-001 2.18029395e-001
      4.28802101e-003 1.78715668e-003 5.27118472e-003 7.32511701e-003
      5.14652394e-002 7.46369548e-003 6.06446899e-003 5.83172031e-003
      5.93097042e-003 7.68217668e-002 9.75733995e-002 2.29669109e-001
      3.51984113e-001 3.51984113e-001 3.51984113e-001 1.42743766e-001
      1.11227982e-001 3.03591974e-002 4.58689500e-003 7.26178812e-004
      2.38128775e-003 6.70858752e-003 6.07147180e-002 1.39556536e-002
      7.06891716e-003 3.99237638e-003 5.07098902e-003 7.86738917e-002
      1.49420008e-001 1.46087348e-001 3.51984113e-001 3.51984113e-001
      3.51984113e-001 2.59584934e-001 1.36804044e-001 9.14978683e-002
      1.02386788e-001 1.42684639e-001 1.46223590e-001 2.79011220e-001
      2.79011220e-001 2.47151420e-001 1.03577383e-001 1.07125506e-001
      4.49099168e-002 2.21867859e-001 1.29427701e-001 6.54645860e-002
      1.59922808e-001 2.79011220e-001 1.37283862e-001 8.27634037e-002
      1.09754369e-001 1.33699819e-001 7.37358928e-002 1.51096746e-001
      1.15187228e-001 2.39937216e-001 2.79011220e-001 2.48632565e-001
      1.66126147e-001 1.24550201e-001 6.27058446e-002 1.82467341e-001
      9.75790545e-002 5.28147146e-002 1.24126032e-001 2.79011220e-001
      1.07199334e-001 9.28723738e-002 8.37416649e-002 1.51271015e-001
      2.31168032e-001 8.95142406e-002 5.69862500e-002 9.16170627e-002
      2.31168032e-001 1.75453931e-001 1.22911751e-001 1.36091366e-001
      2.16241702e-001 2.31168032e-001 2.11310953e-001 2.31168032e-001
      2.31168032e-001 1.73975915e-001 2.17289284e-001 1.45290360e-001
      1.95638925e-001 2.31168032e-001 2.31168032e-001 5.75043969e-002
      4.68472391e-002 1.22638009e-001 2.31168032e-001 1.03091002e-001
      7.73867741e-002 9.51554403e-002 2.31168032e-001 2.14554265e-001
      7.58718401e-002 1.37251243e-001 1.54593319e-001 1.47255376e-001
      8.95266756e-002 2.29631644e-002 7.40372390e-002 1.67179301e-001
      1.55685451e-002 1.72174140e-003 5.67346346e-003 8.11326783e-003
      8.21905434e-002 1.57443900e-002 7.56835844e-003 5.40113263e-003
      1.68054644e-002 3.40121418e-001 2.62695313e-001 2.89822251e-001
      3.40121418e-001 3.40121418e-001 3.40121418e-001 3.40121418e-001
      1.40114531e-001 3.40121418e-001 2.58995444e-002 2.57282495e-003
      9.32608172e-003 3.62504274e-003 2.03497000e-002 4.64424770e-003
      1.64778754e-002 5.65676531e-003 2.62969546e-002 1.59427419e-001
      2.72355489e-002 6.87312260e-002 3.14251296e-002 1.12107076e-001
      9.20103043e-002 8.36209282e-002 1.57785844e-002 2.44538605e-001
      1.80215940e-001 1.46949366e-001 2.08161131e-001 2.07209498e-001
      2.65625417e-001 2.19459713e-001 1.62453577e-001 8.50339979e-002
      2.08468974e-001 2.35778376e-001 9.24708918e-002 2.10617438e-001
      2.65625417e-001 2.65625417e-001 1.39108703e-001 1.17324181e-001
      5.80192432e-002 1.82435378e-001 7.71290138e-002 1.97337847e-002
      5.91926351e-002 3.13329287e-002 9.57596004e-002 4.15752940e-002
      3.50701734e-002 8.95715132e-003 9.20434445e-002 1.61303475e-001
      5.36146425e-002 2.10321516e-001 2.65625417e-001 2.65625417e-001
      1.86067075e-001 2.11662546e-001 3.58322151e-002 1.23986833e-001
      1.88432842e-001 4.29944173e-002 9.85348225e-002 2.25874588e-001
      2.66271681e-001 1.24654591e-001 7.52033219e-002 3.28911692e-002
      1.58720478e-001 1.29888892e-001 3.94320190e-002 8.11384916e-002
      1.19110942e-001 2.57866710e-001 1.26437783e-001 2.18507368e-002
      7.02882633e-002 2.01406077e-001 1.64309055e-001 3.89786400e-002
      1.34498835e-001 2.66271681e-001 2.66271681e-001 2.01732099e-001
      1.75579399e-001 2.89456826e-002 1.54208452e-001 2.47148305e-001
      2.87400018e-002 3.18581387e-002 1.80332214e-001 2.66271681e-001
      2.66271681e-001 1.07366256e-001 9.48838666e-002 2.66271681e-001</_>
    <_>
      4.69410643e-002 1.29634485e-001 2.06679091e-001 2.54961193e-001
      2.54961193e-001 2.54961193e-001 1.16626278e-001 4.25864048e-002
      4.84470874e-002 2.09871694e-001 1.20862655e-001 1.04286000e-001
      1.84357524e-001 2.40959078e-001 2.54961193e-001 1.79126337e-001
      1.02537997e-001 2.43467242e-001 4.61859405e-002 1.42793447e-001
      2.09338218e-001 2.54961193e-001 2.54961193e-001 1.48790225e-001
      6.28762469e-002 2.80187204e-002 3.16394903e-002 7.01998696e-002
      4.22861204e-002 9.49662998e-002 1.61048755e-001 2.20068350e-001
      2.45268673e-001 1.18284546e-001 6.52738586e-002 4.17669825e-002
      1.32269636e-001 1.26923844e-001 9.57303122e-002 1.50207698e-001
      1.71676770e-001 2.19395623e-001 9.51226279e-002 8.17514062e-002
      1.19085759e-001 2.32251883e-001 2.32251883e-001 2.18479410e-001
      2.32251883e-001 2.32251883e-001 2.32251883e-001 2.23438963e-001
      2.32251883e-001 2.32251883e-001 4.79925424e-002 5.09751216e-002
      6.84990659e-002 1.17947698e-001 1.53899997e-001 1.04900412e-001
      4.85070273e-002 5.57049997e-002 3.23059633e-002 1.19193643e-001
      1.79621086e-001 1.17751598e-001 1.77641273e-001 2.09991530e-001
      1.76036999e-001 1.55125737e-001 2.11401314e-001 2.21709371e-001
      1.49667621e-001 2.17190370e-001 1.76378563e-001 1.61361128e-001
      2.17190370e-001 1.92292616e-001 1.23306662e-001 1.72704354e-001
      2.17190370e-001 2.17190370e-001 2.17190370e-001 2.17190370e-001
      2.17190370e-001 2.17190370e-001 2.17190370e-001 1.52854607e-001
      1.31380081e-001 2.11227775e-001 9.07507837e-002 1.23942457e-001
      8.77745226e-002 9.79774073e-002 1.07535928e-001 1.33157372e-001
      1.24811150e-001 1.10588871e-001 1.57108918e-001 1.06418833e-001
      1.23406947e-001 1.17068015e-001 2.10093364e-001 1.37757942e-001
      1.87313333e-001 1.97842538e-001 1.13597594e-001 1.15290701e-001
      5.91617711e-002 1.49347678e-001 1.94582313e-001 2.88405269e-001
      2.88405269e-001 1.51928693e-001 5.66805080e-002 2.58530974e-002
      3.62400077e-002 5.50899617e-002 4.84915487e-002 1.50649890e-001
      1.90370649e-001 2.88405269e-001 2.88405269e-001 1.73328191e-001
      1.51380107e-001 1.41846975e-002 4.41647917e-002 6.14328794e-002
      1.12481497e-001 2.27668941e-001 2.20553756e-001 1.51118279e-001
      7.94674605e-002 6.66208863e-002 3.63475159e-002 8.16246942e-002
      9.13407430e-002 1.30544543e-001 2.42740020e-001 2.88405269e-001
      2.88405269e-001 1.78909138e-001 1.06676221e-001 2.24148966e-002
      5.93535863e-002 6.52050376e-002 1.32731870e-001 1.97576493e-001
      2.54678577e-001 2.54678577e-001 1.20820448e-001 1.14245705e-001
      2.68974304e-002 1.40130430e-001 1.83109522e-001 1.05342492e-001
      2.15399265e-001 2.54678577e-001 2.48463169e-001 2.52395898e-001
      2.13932648e-001 1.86003298e-001 7.02813566e-002 9.26498100e-002
      1.04584709e-001 2.54678577e-001 2.54678577e-001 2.07905978e-001
      1.14564657e-001 7.35625997e-002 2.41156239e-002 6.99736550e-002
      9.61151570e-002 5.20968512e-002 1.88334391e-001 2.54678577e-001
      1.39843345e-001 1.30689532e-001 1.12559713e-001 1.02936938e-001
      9.48622674e-002 8.96186456e-002 6.97657317e-002 1.25954956e-001
      1.59101695e-001 1.26615763e-001 1.77564710e-001 1.19755670e-001
      1.12184256e-001 1.27405033e-001 7.01589286e-002 1.45016581e-001
      2.83690333e-001 2.83690333e-001 2.83690333e-001 2.83690333e-001
      1.42502517e-001 1.21935561e-001 3.24956886e-002 2.20735688e-002
      2.79885512e-002 6.12289310e-002 1.62064865e-001 1.58133924e-001
      1.55962378e-001 8.05632174e-002 4.44029458e-002 1.37765735e-001
      1.43017042e-002 1.14657387e-001 2.83690333e-001 2.83690333e-001
      2.83690333e-001 2.83690333e-001 9.84885544e-002 7.89778605e-002
      7.33629242e-002 6.22014143e-002 1.25068262e-001 2.50948399e-001
      1.48502827e-001 1.68715686e-001 1.68120816e-001 1.02596007e-001
      6.87171742e-002 7.50413835e-002 1.10569015e-001 2.50948399e-001
      2.50948399e-001 2.50948399e-001 2.50948399e-001 2.47988433e-001
      5.84860072e-002 8.17865580e-002 9.77166295e-002 1.41189784e-001
      1.89618513e-001 2.46090010e-001 1.40737191e-001 7.33884871e-002
      1.50075242e-001 5.42997569e-002 9.55542773e-002 6.95202500e-002
      1.09422937e-001 2.08252877e-001 2.50948399e-001 2.50948399e-001
      2.35279083e-001 1.85177475e-001 5.78559339e-002 9.65140462e-002
      4.20710519e-002 8.59587938e-002 2.14708716e-001 2.76405543e-001
      2.76405543e-001 1.53417438e-001 1.18013598e-001 3.86133119e-002
      3.66940461e-002 9.35383886e-002 8.52443278e-002 1.13692172e-001
      2.76405543e-001 2.76405543e-001 1.73738316e-001 1.10800683e-001
      1.08337410e-001 1.15736313e-001 3.36491689e-002 7.37806186e-002
      1.66104272e-001 2.76405543e-001 2.76405543e-001 2.22741663e-001
      9.42791477e-002 3.65318842e-002 2.40688603e-002 9.90403146e-002
      1.32506117e-001 1.58486038e-001 2.76405543e-001 2.76405543e-001
      1.85131043e-001 9.77822915e-002 4.55898531e-002 3.10003608e-002
      3.03136054e-002 1.66128892e-002 2.62954161e-002 6.49517477e-002
      1.46930784e-001 1.81383520e-001 1.37635782e-001 5.45099564e-002
      3.47155184e-002 1.05441630e-001 1.45496996e-002 5.97106144e-002
      3.23691368e-001 3.23691368e-001 3.23691368e-001 3.23691368e-001
      1.24383405e-001 7.95755982e-002 2.78128013e-002 2.40944810e-002
      3.62730436e-002 8.31681937e-002 1.81574285e-001 9.39536095e-002
      8.86095017e-002 3.00516505e-002 2.26359013e-002 5.39257452e-002
      3.37451175e-002 4.88325991e-002 3.23691368e-001 3.23691368e-001
      3.23691368e-001 2.45968431e-001 8.54979455e-002 8.96033123e-002</_>
    <_>
      2.19288338e-002 6.96539879e-002 7.22633600e-002 2.10621297e-001
      3.38682264e-001 2.15121061e-001 6.26462474e-002 1.50112109e-002
      1.55375833e-002 4.22633179e-002 4.47174646e-002 2.90250629e-002
      9.28867534e-002 3.38682264e-001 3.10288340e-001 8.94902200e-002
      2.65094675e-002 3.47388126e-002 1.49082514e-002 2.41252929e-002
      7.09407628e-002 1.01346180e-001 3.38682264e-001 3.38682264e-001
      1.18962131e-001 1.41947148e-002 3.17834020e-002 6.51461929e-002
      1.28180673e-002 3.33900787e-002 1.74420342e-001 3.38682264e-001
      3.38682264e-001 1.17229894e-001 1.95306186e-002 4.24620733e-002
      6.15362823e-002 3.09349056e-002 3.29291299e-002 8.20550770e-002
      3.52296203e-001 2.08261296e-001 4.11994159e-002 2.47148070e-002
      6.74103796e-002 7.34129846e-002 7.67731220e-002 6.15794547e-002
      9.48047712e-002 3.52296203e-001 1.84918448e-001 4.09081839e-002
      9.47267860e-002 7.39203840e-002 7.49973059e-002 3.13589647e-002
      3.43586057e-002 2.21122116e-001 3.52296203e-001 3.52296203e-001
      4.77424152e-002 1.69961471e-002 7.12618604e-002 5.32590039e-002
      7.71532878e-002 1.07275188e-001 1.52445287e-001 3.52296203e-001
      3.52296203e-001 4.08084616e-002 2.77854688e-002 6.59181327e-002
      8.15036446e-002 9.12965983e-002 1.23479992e-001 2.46994182e-001
      3.30377936e-001 3.00390929e-001 8.99629742e-002 2.47216061e-001
      9.37791616e-002 5.22059202e-002 4.98571880e-002 7.39769191e-002
      1.38061762e-001 3.12733352e-001 1.00140512e-001 6.24856800e-002
      6.52503669e-002 6.48960620e-002 4.15888987e-002 1.07480027e-001
      1.61698267e-001 1.85698181e-001 3.30377936e-001 3.30377936e-001
      8.52629617e-002 5.66054285e-002 4.93359789e-002 2.63690762e-002
      5.67223690e-002 8.91953260e-002 1.65812254e-001 3.30377936e-001
      1.23847619e-001 7.51885548e-002 4.07717153e-002 4.29692864e-002
      1.33587988e-002 6.79310132e-003 2.54339632e-002 1.45924047e-001
      4.01922673e-001 2.21003011e-001 5.02734780e-002 8.85337871e-003
      1.04827378e-002 2.41182819e-002 4.06665262e-003 9.99715738e-003
      9.65509713e-002 4.01922673e-001 2.43377998e-001 3.28002945e-002
      1.09776910e-002 9.57950018e-003 1.71394795e-002 4.38980479e-003
      2.68584751e-002 2.76300967e-001 4.01922673e-001 1.89093754e-001
      6.04674332e-002 2.81346999e-002 6.60836231e-003 1.51756415e-002
      4.46979795e-003 2.35763621e-002 2.25772306e-001 4.01922673e-001
      1.84635788e-001 2.61985715e-002 3.67873833e-002 4.35825298e-003
      1.60494782e-002 1.08205909e-002 1.34402383e-002 1.36969954e-001
      4.09147233e-001 1.56079784e-001 1.71805266e-002 1.21077541e-002
      1.04958080e-002 1.09587321e-002 2.03669146e-002 4.37899195e-002
      1.63548991e-001 4.09147233e-001 2.25480139e-001 2.06084233e-002
      1.39905782e-002 1.05354488e-002 5.79651771e-003 4.71948134e-003
      3.62744443e-002 2.52582103e-001 4.09147233e-001 1.16125107e-001
      1.22224586e-002 1.00339642e-002 8.99343379e-003 4.99088690e-003
      1.28550101e-002 4.43840213e-002 2.28020012e-001 4.09147233e-001
      2.60532945e-001 1.17975157e-002 5.39090997e-003 1.09652700e-002
      7.26787234e-003 2.87344381e-002 7.23677427e-002 1.72349185e-001
      3.56867760e-001 3.14068884e-001 2.70767752e-002 5.76165039e-003
      7.67337391e-003 9.19774082e-003 1.94724575e-002 3.99568453e-002
      1.21397801e-001 3.08868974e-001 1.26229644e-001 4.34253663e-002
      4.54339683e-002 1.29794013e-002 9.63690132e-003 3.69342081e-002
      9.35397670e-002 3.13074440e-001 3.56867760e-001 3.56867760e-001
      1.75437406e-002 2.43884744e-003 9.56969336e-003 2.20950153e-002
      3.36557925e-002 6.13271259e-002 1.62789062e-001 3.56867760e-001
      2.72382379e-001 4.01269644e-002 5.40522411e-002 1.57453083e-002
      1.96395796e-002 4.55473643e-003 2.87904423e-002 2.26181000e-001
      3.86720031e-001 2.16013506e-001 7.36678466e-002 1.86834279e-002
      9.70034208e-003 9.58056841e-003 1.00681437e-002 5.11018485e-002
      3.58242542e-001 3.86720031e-001 1.40309975e-001 3.13665271e-002
      3.48050818e-002 9.09208436e-004 1.87831372e-002 4.19117184e-003
      4.65253554e-002 2.37528682e-001 3.86720031e-001 1.45034477e-001
      2.22731065e-002 2.21945345e-002 2.11317334e-002 1.43767623e-002
      1.12937037e-002 3.85614112e-002 1.88420579e-001 3.86720031e-001
      1.19711027e-001 2.10320465e-002 7.76984841e-002 2.04415992e-002
      2.59123370e-003 9.75937117e-003 7.35311955e-002 2.94714749e-001
      3.79449695e-001 8.70513842e-002 1.25084734e-002 1.73141491e-002
      1.34018110e-002 4.93448554e-003 3.35060060e-002 7.72948638e-002
      2.24634379e-001 3.79449695e-001 2.27540135e-001 1.68735962e-002
      4.18396667e-003 1.67389195e-002 1.08977193e-002 1.47190141e-002
      4.41019461e-002 1.75683275e-001 3.79449695e-001 9.76906866e-002
      1.82787701e-002 4.84450348e-002 1.06958887e-002 3.23226452e-002
      9.15128216e-002 1.08456157e-001 3.14190239e-001 3.79449695e-001
      2.08183154e-001 2.88998093e-002 1.32589908e-002 5.44340350e-003
      1.45797543e-002 6.59354851e-002 8.71477798e-002 2.08608314e-001
      3.21384460e-001 2.91354507e-001 3.14588957e-002 2.47016805e-003
      7.41113629e-003 2.44052988e-002 3.41340378e-002 5.34822159e-002
      7.47673586e-002 3.21384460e-001 2.25973785e-001 3.12325396e-002
      2.11013071e-002 2.04691868e-002 5.35767935e-002 1.69397682e-001
      1.30839035e-001 3.12323809e-001 3.21384460e-001 3.21384460e-001
      6.19310252e-002 3.29371430e-002 4.56094230e-003 2.61885263e-002
      4.60237041e-002 5.91469407e-002 8.66634920e-002 3.21384460e-001
      3.21384460e-001 5.91439046e-002 5.48952296e-002 2.89632976e-002</_>
    <_>
      8.28566682e-003 7.64103560e-003 5.25606237e-002 1.83296666e-001
      4.34131771e-001 6.77415505e-002 2.04139445e-002 1.87922157e-002
      9.88594908e-003 6.03674073e-003 9.95843112e-003 2.56399959e-002
      9.11285505e-002 4.34131771e-001 1.20408237e-001 1.92344878e-002
      8.44022725e-003 4.80001559e-003 1.14756031e-002 1.53595293e-002
      1.07782558e-001 3.34399194e-001 4.34131771e-001 9.15389434e-002
      1.54726580e-002 1.07821329e-002 1.30766090e-002 1.64116938e-002
      2.80099008e-002 3.86219211e-002 1.43902659e-001 4.34131771e-001
      1.37684479e-001 1.70489382e-002 1.79054048e-002 1.55840069e-002
      1.69877633e-002 1.78043488e-002 3.16167884e-002 1.83408722e-001
      5.11830926e-001 2.30929285e-001 2.86334138e-002 1.85650103e-002
      1.56579949e-002 1.68480165e-002 1.61777958e-002 2.30798069e-002
      4.09269482e-002 2.95524150e-001 3.30730565e-002 3.01578660e-002
      1.64462253e-002 1.49205932e-002 2.80683618e-002 4.09944728e-002
      4.28148285e-002 2.26538405e-001 5.11830926e-001 2.95500278e-001
      2.33783163e-002 2.80544441e-002 2.70635504e-002 1.88467223e-002
      2.80763842e-002 4.18728627e-002 5.23510687e-002 3.63526702e-001
      6.39966279e-002 3.23525146e-002 1.30606946e-002 1.64600052e-002
      1.89209834e-003 1.37897930e-003 3.53543572e-002 9.35581028e-002
      4.49175447e-001 7.24617764e-003 2.58668046e-003 7.54494627e-004
      7.04809965e-004 6.84143603e-003 1.30776258e-003 5.72156161e-002
      3.47803682e-001 4.49175447e-001 1.65969562e-002 3.20749066e-004
      7.88138641e-005 4.45766281e-003 9.65452578e-004 2.44197436e-003
      6.17856858e-003 5.23774810e-002 4.49175447e-001 1.91517826e-002
      4.44415631e-003 8.97594437e-004 7.34788307e-004 8.75741802e-003
      1.61458470e-003 2.14260048e-003 2.22877964e-001 4.49175447e-001
      2.85560135e-002 1.02513714e-003 2.04531549e-004 8.58250447e-003
      4.43779398e-003 6.61584642e-003 3.84937897e-002 2.68285275e-001
      3.68791550e-001 1.01164244e-001 2.09232122e-002 1.04071023e-002
      9.28755384e-003 5.22648310e-003 1.15791876e-002 2.13954300e-002
      2.78971136e-001 3.68791550e-001 9.92468521e-002 1.92035343e-002
      1.91728994e-002 1.39451148e-002 2.31697457e-003 2.79468158e-003
      3.22178826e-002 3.54884148e-001 3.68791550e-001 1.03512540e-001
      2.17514988e-002 5.05853631e-003 5.25875250e-003 2.69381388e-004
      2.76911538e-003 2.48531494e-002 3.68791550e-001 3.68791550e-001
      5.78483641e-002 1.96362399e-002 7.64640840e-003 3.87721951e-003
      1.42211700e-002 2.12165602e-002 3.98452915e-002 3.89501512e-001
      3.89501512e-001 2.25781173e-001 1.82495099e-002 2.48600692e-002
      2.23446377e-002 1.36136338e-002 1.98931806e-002 3.55070643e-002
      1.06071681e-001 3.07783812e-001 5.00698835e-002 2.47483309e-002
      1.41202006e-002 1.27162086e-002 7.92681053e-003 9.91144311e-003
      4.64860760e-002 3.89501512e-001 3.89501512e-001 1.20035276e-001
      2.88416278e-002 1.82353891e-002 1.40651679e-002 1.49009945e-002
      1.54822124e-002 4.55980822e-002 1.98709607e-001 3.89501512e-001
      9.44851637e-002 4.12766375e-002 2.33920123e-002 1.68036912e-002
      1.15580845e-003 1.46594702e-003 3.97854345e-003 1.02061592e-001
      4.26588058e-001 1.26170181e-002 4.46350733e-003 2.60226429e-003
      1.05636392e-003 4.29597450e-003 4.57393733e-004 1.20103648e-002
      2.39229292e-001 4.26588058e-001 2.04601754e-002 2.98869167e-003
      3.46537610e-003 3.84833943e-003 1.23382290e-003 8.00535083e-004
      3.73690994e-003 1.83331579e-001 4.26588058e-001 2.81713344e-002
      5.20952791e-003 2.97704805e-003 1.46037072e-003 1.73166376e-002
      1.31816487e-003 3.02960332e-002 4.02230352e-001 4.26588058e-001
      3.55581567e-002 8.15877691e-003 1.25507126e-002 2.00694036e-002
      8.25316831e-003 6.39160490e-003 5.81125133e-002 2.81435519e-001
      4.56510991e-001 7.19996169e-002 2.58557852e-002 8.90492462e-003
      1.41229741e-002 3.02493281e-004 3.50711355e-003 2.41595581e-002
      1.69413313e-001 4.56510991e-001 6.69659004e-002 1.80325583e-002
      4.97480202e-003 3.46357306e-003 1.26023851e-002 8.00927728e-003
      3.76826786e-002 1.07916966e-001 4.56510991e-001 1.00219622e-001
      3.70052084e-002 2.84684189e-002 1.54239340e-002 2.37244138e-004
      1.64774514e-003 1.93181019e-002 4.20661755e-002 4.56510991e-001
      1.04326673e-001 8.59717652e-003 2.47302256e-003 2.00465880e-003
      9.32140648e-003 9.93479881e-003 3.79024781e-002 2.41569757e-001
      4.47832972e-001 1.01127975e-001 1.85013618e-002 1.32152271e-002
      1.72931924e-002 1.90915763e-002 1.24159735e-002 3.14694121e-002
      1.78194448e-001 4.47832972e-001 7.09631667e-002 2.04690266e-002
      1.10024996e-002 1.79060288e-002 7.79080717e-003 1.60870180e-002
      3.33816335e-002 8.25329274e-002 4.47832972e-001 1.49754062e-001
      1.37147373e-002 9.28226020e-003 9.01684165e-003 1.35255568e-002
      2.38536969e-002 3.28289047e-002 2.07790643e-001 4.47832972e-001
      8.22374374e-002 9.13929008e-003 1.06880674e-002 1.16161238e-002
      1.48364762e-003 9.27425746e-004 2.43332563e-003 1.66556388e-001
      4.17254210e-001 2.65286416e-002 2.31733965e-003 6.55866810e-004
      1.05415029e-003 1.30904848e-002 2.38821842e-003 1.79467928e-002
      3.12649041e-001 4.17254210e-001 4.38048802e-002 1.53509174e-002
      5.94866276e-003 1.85592473e-002 8.82305030e-004 1.64234836e-003
      3.72328958e-003 1.99298739e-001 4.17254210e-001 3.56724970e-002
      5.25749347e-004 4.07374348e-004 5.25103300e-004 2.06335890e-003
      6.20038831e-004 2.18415800e-002 3.54558319e-001 4.17254210e-001
      5.22152670e-002 1.55685646e-002 8.89512768e-004 3.23012681e-003</_>
    <_>
      4.76592369e-002 2.27963254e-002 7.02671856e-002 2.36667722e-001
      4.29211587e-001 1.26960367e-001 4.17951085e-002 2.81379581e-003
      3.26784477e-002 2.97757350e-002 4.27733064e-002 7.58292601e-002
      2.18250588e-001 2.68943429e-001 9.96344760e-002 4.15787287e-002
      1.01467548e-002 3.44810523e-002 3.04752253e-002 3.44206803e-002
      1.71657667e-001 3.69428188e-001 4.29211587e-001 1.17437191e-001
      3.06948088e-002 5.55017451e-003 3.06741130e-002 3.45287994e-002
      3.86734940e-002 1.02979943e-001 2.79808462e-001 3.13836664e-001
      1.45052165e-001 6.83554634e-002 2.41067056e-002 5.54317199e-002
      8.61658528e-002 6.51192069e-002 9.36135724e-002 2.33974874e-001
      2.93044955e-001 2.25858867e-001 4.31590863e-002 5.12625985e-002
      1.57087520e-001 6.94191679e-002 3.41988541e-002 8.59467015e-002
      2.37435207e-001 2.93044955e-001 1.68412089e-001 3.19180638e-002
      5.20369262e-002 1.37072995e-001 1.69447392e-001 4.83336486e-002
      9.74405780e-002 2.14623630e-001 2.93044955e-001 2.93044955e-001
      1.43880948e-001 7.19614774e-002 2.05813676e-001 1.38083756e-001
      3.72634940e-002 6.41373619e-002 1.56178802e-001 2.93044955e-001
      2.02946886e-001 7.58899227e-002 7.00110421e-002 1.89890549e-001
      1.04765147e-002 2.15041377e-002 8.64265487e-002 2.60839701e-001
      3.23795855e-001 1.36302084e-001 2.11256035e-002 1.11731477e-002
      2.14293301e-002 2.61835903e-002 4.84877191e-002 1.04084320e-001
      3.23795855e-001 3.23795855e-001 2.59899974e-001 1.97630636e-002
      9.69339814e-003 3.64035107e-002 2.42942534e-002 5.07665388e-002
      9.54513252e-002 1.76845044e-001 3.23795855e-001 1.58366755e-001
      3.53790484e-002 2.81266309e-002 5.10699674e-002 8.88766274e-002
      8.36383402e-002 1.18460782e-001 3.23795855e-001 3.23795855e-001
      2.69351333e-001 3.87596227e-002 3.05958502e-002 1.07642420e-001
      9.04458668e-003 2.41187327e-002 1.96802765e-001 3.96504939e-001
      4.15299952e-001 1.34355932e-001 1.01309316e-002 1.27072921e-002
      1.30716348e-002 1.87844634e-002 2.02043075e-002 8.80679190e-002
      2.08988398e-001 1.81443006e-001 7.96915814e-002 3.91604975e-002
      1.90772545e-002 2.82311849e-002 1.96000244e-002 5.48750758e-002
      2.07571581e-001 4.15299952e-001 4.15299952e-001 1.93132535e-001
      1.22028869e-002 1.92398932e-002 1.22231031e-002 1.53296534e-002
      2.42880527e-002 8.70089084e-002 1.53520614e-001 2.04810694e-001
      9.72259343e-002 3.18391025e-002 9.93899070e-003 1.56432018e-002
      1.28609657e-001 3.84485386e-002 1.49489298e-001 2.83165246e-001
      2.83165246e-001 2.45130166e-001 1.43716976e-001 7.65834451e-002
      1.07645676e-001 9.44797844e-002 4.46431004e-002 7.91898072e-002
      2.37757862e-001 2.83165246e-001 2.13107124e-001 8.56576562e-002
      7.30389953e-002 1.03253715e-001 3.99228036e-002 4.25381809e-002
      2.07445830e-001 2.83165246e-001 2.83165246e-001 1.78266302e-001
      6.97222054e-002 3.97942550e-002 2.41578873e-002 2.09433232e-002
      2.16102917e-002 9.12929252e-002 2.83165246e-001 2.83165246e-001
      2.41536722e-001 2.87708100e-002 3.31699066e-002 1.05535919e-002
      2.75840126e-002 2.64793336e-002 4.54449058e-002 1.34341449e-001
      3.15274239e-001 1.26369625e-001 2.96309832e-002 1.74493324e-002
      3.26513536e-002 6.64915815e-002 2.77757365e-002 4.04575020e-002
      2.19415143e-001 4.37110245e-001 2.19717696e-001 4.41200957e-002
      1.99741665e-002 6.84971511e-002 2.56017186e-002 5.60759753e-003
      1.79667529e-002 1.84940055e-001 4.37110245e-001 1.56382933e-001
      9.12547391e-003 9.06454772e-003 1.84360929e-002 3.34045589e-002
      1.58594232e-002 2.31238566e-002 2.00338483e-001 4.37110245e-001
      2.62989074e-001 2.86798552e-002 8.62541236e-003 2.62688715e-002
      5.01257293e-002 2.49453768e-001 3.13323289e-001 3.13323289e-001
      3.13323289e-001 2.65674353e-001 3.08435485e-002 2.87494473e-002
      2.91321985e-002 3.94568481e-002 3.67249735e-002 7.59680495e-002
      1.36296079e-001 3.00348461e-001 1.77583471e-001 6.05485477e-002
      2.06330474e-002 2.33408753e-002 6.23884089e-002 1.79860801e-001
      2.65106648e-001 1.81449696e-001 3.13323289e-001 1.47265002e-001
      4.57049087e-002 3.22569199e-002 6.07438385e-002 4.72810417e-002
      7.41301328e-002 6.28943369e-002 1.12387545e-001 3.13323289e-001
      1.35566995e-001 4.57442217e-002 2.29818393e-002 3.40176970e-002
      5.78305013e-002 3.80957238e-002 1.10619746e-001 2.95692742e-001
      2.95692742e-001 2.22904757e-001 1.27317667e-001 4.93538715e-002
      4.75608930e-002 2.96265222e-002 8.16891249e-003 5.26611842e-002
      2.95692742e-001 2.95692742e-001 2.75346607e-001 5.26424535e-002
      1.98513120e-002 2.40112171e-002 6.68197349e-002 8.03652853e-002
      7.79826418e-002 2.18779594e-001 2.95692742e-001 1.90668523e-001
      7.93624073e-002 4.36375141e-002 6.12928234e-002 2.45427694e-002
      3.23248543e-002 7.33289197e-002 2.95692742e-001 2.95692742e-001
      2.95692742e-001 6.90633655e-002 3.07231229e-002 2.73671206e-002
      2.09089424e-002 5.74314222e-003 2.41518356e-002 1.99623272e-001
      3.79713953e-001 1.47039086e-001 8.09291564e-003 8.17010086e-003
      1.15691060e-002 6.34721816e-002 1.34990197e-002 4.55669314e-002
      2.80163556e-001 3.79713953e-001 2.07518458e-001 5.75427450e-002
      2.74332259e-002 6.14963397e-002 6.20036758e-003 4.59437212e-003
      3.99874300e-002 1.77416757e-001 3.43871504e-001 1.89885005e-001
      3.75206880e-002 6.76113227e-003 4.35941620e-003 7.87442476e-002
      5.09437127e-003 4.71752100e-002 2.13981360e-001 3.79713953e-001
      2.79209524e-001 1.59685180e-001 5.02966531e-002 1.26655549e-001</_>
    <_>
      3.84753384e-002 1.96713824e-002 6.83773011e-002 1.86501354e-001
      2.87015945e-001 2.57361174e-001 1.79651126e-001 9.43936631e-002
      9.11068842e-002 2.18024831e-002 3.56229395e-002 6.39002696e-002
      1.88409284e-001 2.87015945e-001 2.22639322e-001 9.09156054e-002
      5.84550127e-002 4.80158255e-002 4.39363718e-002 3.61568406e-002
      1.61641419e-001 2.87015945e-001 2.87015945e-001 2.87015945e-001
      1.60322502e-001 5.96987717e-002 5.29175140e-002 1.30207511e-002
      2.12294366e-002 7.16811866e-002 2.87015945e-001 2.87015945e-001
      2.87015945e-001 8.86729211e-002 3.07294428e-002 1.34356180e-002
      5.18171079e-002 1.29712410e-002 1.98848117e-002 1.69261739e-001
      3.55903774e-001 1.59737896e-002 7.06499116e-003 1.71863381e-002
      3.14141065e-002 2.05206916e-001 3.55786905e-002 5.66620603e-002
      2.50035524e-001 3.55903774e-001 8.64135176e-002 9.92086809e-003
      3.46730277e-002 1.11588299e-001 2.30829827e-002 1.84124392e-002
      3.87621596e-002 3.20179641e-001 3.55903774e-001 4.34964038e-002
      4.35968675e-002 2.06728410e-002 1.81032382e-002 8.61621052e-002
      1.26130298e-001 1.48357764e-001 3.55903774e-001 3.55903774e-001
      7.17242658e-002 1.76704392e-001 6.35985732e-002 6.40614778e-002
      1.97580934e-001 4.42231968e-002 8.36849585e-002 1.79802135e-001
      4.68161494e-001 1.94983616e-001 1.36490101e-002 5.22757247e-002
      1.17856123e-001 1.29732704e-002 5.41519793e-003 2.93015689e-002
      6.84364662e-002 2.17456952e-001 6.42142445e-002 1.75680760e-002
      1.05654867e-002 1.04430597e-002 9.11617279e-002 1.84731066e-001
      1.94574445e-001 3.48844737e-001 4.68161494e-001 1.47253752e-001
      1.83106393e-001 7.74645433e-002 7.20380768e-002 1.02387117e-002
      4.42525372e-003 3.79714370e-002 8.80796984e-002 2.74558812e-001
      9.64271128e-002 2.20794529e-002 2.92018410e-002 2.01207753e-002
      2.93392017e-002 3.54316644e-002 1.12178840e-001 2.56174237e-001
      2.93348104e-001 1.84898615e-001 1.16530940e-001 2.33536456e-002
      2.95602977e-002 5.28392568e-003 9.05053411e-003 4.07690331e-002
      2.90879160e-001 3.20178777e-001 2.20145091e-001 7.42970183e-002
      1.54383490e-002 5.11280913e-003 4.00667973e-002 8.02255049e-002
      1.75260454e-001 2.70863980e-001 3.20178777e-001 2.25326851e-001
      6.67507276e-002 5.66583611e-002 6.37386516e-002 6.08548010e-003
      7.46286707e-003 5.08793481e-002 3.20178777e-001 3.20178777e-001
      2.24267319e-001 4.81681414e-002 1.99280493e-002 1.50696253e-002
      2.74650683e-003 5.88229671e-003 2.46548299e-002 2.33913988e-001
      3.71680528e-001 3.43368836e-002 2.84535903e-002 9.07497574e-003
      1.72670372e-003 7.87726790e-003 4.13561612e-002 8.85463655e-002
      3.71680528e-001 3.71680528e-001 3.39479074e-002 1.05739109e-001
      3.64800841e-002 6.36183657e-003 1.12836264e-004 7.71097897e-004
      4.10031565e-002 2.50803143e-001 3.71680528e-001 3.99109572e-002
      7.05298269e-003 1.20228087e-003 8.70683929e-004 1.87163206e-003
      5.62842761e-004 1.37112260e-001 3.71680528e-001 3.71680528e-001
      3.94158103e-002 7.48141715e-003 2.96632503e-003 5.32881473e-004
      1.57857761e-002 8.65326077e-002 1.32520840e-001 4.29850549e-001
      4.29850549e-001 7.94701949e-002 1.54611796e-001 6.24869652e-002
      1.54167898e-002 5.48215257e-003 8.02210253e-003 3.87107134e-002
      9.36721787e-002 2.38481149e-001 9.14999098e-002 2.23244727e-002
      2.59690173e-002 1.24865873e-002 7.44652376e-003 4.63162735e-003
      1.73377931e-001 4.29850549e-001 4.29850549e-001 7.44450688e-002
      1.36811463e-002 9.60263703e-003 2.34574918e-003 6.03938662e-003
      1.07344035e-002 5.61656132e-002 1.36075839e-001 2.38549426e-001
      6.90215752e-002 1.99378822e-002 1.16741601e-002 5.18891122e-003
      5.36907017e-002 1.63853019e-001 1.76223695e-001 3.06079090e-001
      2.98647225e-001 2.01198936e-001 4.12260480e-002 4.77599241e-002
      4.33923416e-002 1.69980098e-002 1.48889683e-002 5.34594692e-002
      3.06079090e-001 3.06079090e-001 1.63584888e-001 1.25191258e-002
      1.21253002e-002 1.11392895e-002 5.26033193e-002 1.46584108e-001
      1.82878554e-001 3.06079090e-001 3.06079090e-001 1.43115014e-001
      3.93870100e-002 1.63418204e-002 2.27856506e-002 1.19000906e-002
      3.22243236e-002 8.21708962e-002 3.06079090e-001 3.06079090e-001
      1.60094306e-001 9.39191412e-003 6.87978650e-003 7.65747111e-003
      9.66148265e-003 2.62199482e-003 3.25649753e-002 2.91786283e-001
      3.61052066e-001 8.28612894e-002 1.65499281e-002 4.19543777e-003
      4.91299806e-003 1.52507583e-002 3.01053491e-003 8.39325637e-002
      3.61052066e-001 3.61052066e-001 1.12025850e-001 2.05910634e-002
      5.79688372e-003 3.48572433e-003 9.75167602e-002 2.29917392e-002
      1.75104141e-002 2.40896091e-001 3.61052066e-001 7.62095898e-002
      1.53858410e-002 4.22432786e-003 2.38002036e-002 1.23706073e-001
      2.48259772e-002 1.68119483e-002 3.61052066e-001 3.61052066e-001
      8.94824341e-002 1.92602649e-002 7.66645279e-003 2.84647346e-002
      2.00957637e-002 9.53909848e-003 1.29216969e-001 4.04714555e-001
      4.04714555e-001 1.66306257e-001 2.06349362e-002 1.46770300e-002
      2.80090468e-003 1.29829403e-002 1.31922616e-002 7.94920027e-002
      1.82954863e-001 2.83591598e-001 1.15203679e-001 2.45299209e-002
      1.56152239e-002 6.54042605e-003 6.81527779e-002 2.27405652e-002
      7.12118819e-002 4.04714555e-001 4.04714555e-001 1.72911525e-001
      3.08598243e-002 3.52413468e-002 1.90526880e-002 2.78007742e-002
      4.85024042e-002 9.76953655e-002 1.54030487e-001 2.54273206e-001
      1.19231835e-001 3.03729009e-002 3.96687761e-002 1.06488047e-002</_>
    <_>
      2.96137929e-001 9.09900814e-002 1.81981064e-002 1.76683944e-002
      5.31821661e-002 4.17566597e-002 2.39403863e-002 8.66527408e-002
      2.96137929e-001 2.96137929e-001 4.19987552e-002 1.64930727e-002
      3.40382904e-002 4.23808098e-002 3.35799344e-002 1.51361376e-002
      7.28218108e-002 2.96137929e-001 2.96137929e-001 1.14200249e-001
      1.08282119e-001 1.16761275e-001 1.70239240e-001 1.20490603e-001
      1.07562460e-001 6.12525642e-002 2.96137929e-001 2.96137929e-001
      1.47130698e-001 1.89263001e-001 2.42467999e-001 1.90330327e-001
      6.12540394e-002 5.98269142e-002 7.20852241e-002 2.96137929e-001
      3.05397272e-001 1.20908864e-001 3.19346599e-002 4.67044115e-002
      5.76622523e-002 6.69172779e-002 2.34313216e-002 1.12958960e-001
      3.05397272e-001 3.05397272e-001 2.69992858e-001 3.44251879e-002
      2.70314272e-002 5.58199808e-002 7.29159042e-002 9.98703837e-002
      1.72324479e-001 3.05397272e-001 3.05397272e-001 1.60136998e-001
      1.14954077e-001 1.69783875e-001 1.05600640e-001 1.55896088e-002
      1.37595125e-002 6.30453378e-002 2.74233907e-001 3.05397272e-001
      2.22042486e-001 9.46056470e-002 5.80231063e-002 2.57594846e-002
      1.53540112e-002 7.61423483e-002 1.02928527e-001 1.95291162e-001
      3.13563883e-001 3.12802702e-001 1.88353714e-002 6.29145047e-003
      1.81258507e-002 2.25846823e-002 6.57717288e-002 1.65136948e-001
      3.13563883e-001 3.13563883e-001 2.12472066e-001 7.38353282e-003
      3.66609963e-003 7.85174128e-003 5.32678654e-003 8.84599425e-003
      9.81844366e-002 3.13563883e-001 3.07534367e-001 2.44435653e-001
      4.40135375e-002 1.77439135e-002 1.64708700e-002 1.37894480e-002
      5.74159212e-002 1.21018954e-001 1.57170713e-001 3.13563883e-001
      1.78247556e-001 1.72262266e-002 2.61680949e-002 3.11336443e-002
      9.52864531e-003 1.25569105e-002 6.87688440e-002 2.84911811e-001
      2.41315037e-001 8.60846490e-002 2.41315037e-001 2.41315037e-001
      2.16083631e-001 1.39832601e-001 1.61855698e-001 4.73983958e-002
      1.27603427e-001 2.41315037e-001 1.76177651e-001 2.41315037e-001
      2.41315037e-001 2.41315037e-001 6.24002144e-002 8.16546082e-002
      3.34330276e-002 1.16889462e-001 1.96117088e-001 8.00048560e-002
      2.10083351e-001 2.41315037e-001 1.14315629e-001 7.44221658e-002
      8.59065279e-002 3.38924341e-002 1.19244009e-001 1.88906178e-001
      1.33935973e-001 2.41315037e-001 2.41315037e-001 1.98072329e-001
      4.70167212e-002 4.60108817e-002 3.20042074e-002 1.09245218e-001
      2.52315670e-001 2.52315670e-001 2.52315670e-001 2.52315670e-001
      2.21120194e-001 3.28660868e-002 2.67310329e-002 1.86298843e-002
      6.41787872e-002 1.03007525e-001 1.66107461e-001 2.52315670e-001
      1.21405482e-001 9.47615504e-002 6.53284192e-002 4.21987139e-002
      2.83990446e-002 3.12063061e-002 1.75487041e-001 1.96557894e-001
      2.52315670e-001 2.52315670e-001 2.52315670e-001 5.51589020e-002
      4.70767878e-002 7.09724724e-002 8.35192204e-002 2.28778332e-001
      1.42771035e-001 2.52315670e-001 2.21556649e-001 2.41759077e-001
      6.85643330e-002 4.50901650e-002 5.79534657e-002 1.50173560e-001
      8.45645517e-002 8.81400704e-002 1.42451093e-001 6.67412430e-002
      7.54692629e-002 3.58087085e-002 2.77863871e-002 1.67126674e-002
      2.71502268e-002 1.95772395e-001 1.40947640e-001 1.63886890e-001
      1.51282504e-001 1.15090623e-001 2.73670591e-002 1.98036302e-002
      1.05530396e-002 8.75892043e-002 2.36696199e-001 1.30502954e-001
      2.12416798e-001 2.07230374e-001 1.88824862e-001 3.80763933e-002
      3.82618681e-002 4.63057011e-002 1.53019398e-001 2.99214333e-001
      2.99214333e-001 2.99214333e-001 2.99214333e-001 2.99214333e-001
      2.12449342e-001 9.01028588e-002 5.28280325e-002 2.99214333e-001
      2.16877908e-001 2.12723285e-001 2.53977716e-001 2.53977716e-001
      1.71529397e-001 7.22011253e-002 9.10021439e-002 6.38713241e-002
      8.86384919e-002 1.64235473e-001 1.83663234e-001 2.53977716e-001
      2.53977716e-001 2.53977716e-001 5.46648726e-002 7.24718198e-002
      7.77859464e-002 9.76963937e-002 1.64633155e-001 2.44903237e-001
      2.53977716e-001 2.53977716e-001 1.89230859e-001 5.70305586e-002
      3.68470587e-002 5.73594198e-002 5.98244779e-002 8.01397264e-002
      1.13210052e-001 2.53977716e-001 2.53977716e-001 1.66250691e-001
      4.29311432e-002 2.51715295e-002 3.46581414e-002 1.76932421e-002
      2.09269866e-001 1.26430035e-001 2.21171036e-001 2.38969594e-001
      2.38969594e-001 6.56650141e-002 7.35893920e-002 1.36573464e-001
      1.04773112e-001 2.38969594e-001 1.48729578e-001 2.38969594e-001
      2.38969594e-001 2.38969594e-001 1.52682677e-001 9.61511210e-002
      1.38129398e-001 2.35624537e-001 1.44311234e-001 7.28131011e-002
      1.12503603e-001 1.84486911e-001 1.86143622e-001 7.47167096e-002
      4.61479761e-002 8.90413746e-002 6.84797242e-002 2.38969594e-001
      8.41600895e-002 7.06597567e-002 1.43059999e-001 1.82606101e-001
      2.18868136e-001 1.55088469e-001 1.85088918e-001 1.43660590e-001
      1.25534743e-001 6.20200969e-002 1.15425430e-001 1.01137027e-001
      1.39576405e-001 6.33830205e-002 5.82804233e-002 6.23942502e-002
      1.03592001e-001 2.14136407e-001 2.40908906e-001 2.40908906e-001
      2.40908906e-001 2.40908906e-001 2.17445076e-001 1.17972426e-001
      1.13147281e-001 2.40908906e-001 5.61142825e-002 3.22025716e-002
      7.47396275e-002 3.42710763e-002 1.36821225e-001 1.12789683e-001
      1.24788582e-001 9.83666480e-002 8.33446309e-002 1.59101456e-001
      1.75241768e-001 2.40908906e-001 1.55065060e-001 2.40908906e-001
      2.40908906e-001 2.40908906e-001 2.40908906e-001 2.40908906e-001</_>
    <_>
      1.28327329e-002 2.47465372e-002 7.97388852e-002 3.19462985e-001
      3.71644914e-001 1.35332033e-001 4.00926396e-002 5.74882776e-002
      2.59644967e-002 8.10823496e-003 1.40355797e-002 3.15197818e-002
      1.16399661e-001 3.71644914e-001 3.49433243e-001 7.32481554e-002
      4.40081581e-002 2.38483492e-003 1.80686954e-002 3.45098488e-002
      4.68902104e-002 1.18066274e-001 3.71644914e-001 1.43483177e-001
      5.48882000e-002 1.08179346e-001 6.93885386e-002 1.03616128e-002
      2.45823860e-002 4.15410697e-002 1.25390917e-001 3.71644914e-001
      2.87687421e-001 7.09904805e-002 5.24447411e-002 3.12463776e-003
      2.22772192e-002 3.58674899e-002 6.20074533e-002 9.07954499e-002
      3.17909867e-001 3.17909867e-001 1.02173738e-001 2.39909478e-002
      7.77620031e-003 7.12076053e-002 1.26483992e-001 1.17277741e-001
      1.82383463e-001 3.17909867e-001 2.21696973e-001 8.06966126e-002
      4.07733582e-002 3.80856022e-002 1.26997381e-002 2.50857733e-002
      6.81300238e-002 1.81285053e-001 3.17909867e-001 3.17909867e-001
      6.95345029e-002 2.26205382e-002 6.09731954e-003 4.85931262e-002
      1.14360839e-001 1.17017351e-001 2.25591108e-001 3.17909867e-001
      3.17909867e-001 6.83054850e-002 7.34115988e-002 6.15568720e-002
      3.67457457e-002 6.54298142e-002 1.01734221e-001 3.09270948e-001
      3.18832815e-001 1.32497430e-001 1.78974960e-002 2.67106164e-002
      3.27289701e-002 1.56150721e-002 9.05986689e-003 1.07303724e-001
      3.18832815e-001 3.18832815e-001 1.12516500e-001 1.06272148e-002
      1.50785400e-002 1.89837310e-002 2.84681898e-002 8.03364292e-002
      7.18754753e-002 2.25945607e-001 3.18832815e-001 3.18832815e-001
      5.16282842e-002 5.18475585e-002 5.29378951e-002 6.05342677e-003
      1.83148924e-002 1.05162002e-001 2.82154202e-001 3.18832815e-001
      2.52697438e-001 5.32368757e-002 3.02164927e-002 1.06788231e-002
      1.73211861e-002 2.06205510e-002 1.53839877e-002 1.23919457e-001
      4.22257423e-001 1.75114080e-001 2.83578839e-002 6.43654466e-002
      3.35630178e-002 1.30415587e-002 1.39649389e-002 1.82120316e-002
      1.34012401e-001 4.22257423e-001 1.28594130e-001 2.04555932e-002
      1.46190114e-002 4.03337972e-003 1.43345036e-002 2.73333807e-002
      9.44280904e-003 3.08219582e-001 4.22257423e-001 1.52923614e-001
      1.41201150e-002 1.85217522e-002 1.53450342e-002 1.32278968e-002
      1.32950246e-002 1.55222313e-002 2.42043376e-001 4.22257423e-001
      1.16534129e-001 1.98516101e-002 1.06758215e-002 1.44493114e-002
      7.09595252e-003 1.25088543e-002 4.12251540e-002 2.08448187e-001
      3.48682612e-001 1.61634088e-001 3.32021564e-002 1.04545690e-002
      4.40147985e-003 1.56216007e-002 4.80231270e-002 9.17708203e-002
      2.80680716e-001 3.48682612e-001 2.78924644e-001 7.51171187e-002
      5.60833216e-002 3.04095354e-002 1.98609419e-002 1.96791571e-002
      4.29549515e-002 2.77437299e-001 3.48682612e-001 1.16364717e-001
      1.83182880e-002 8.41150805e-003 1.15212714e-002 5.06448895e-002
      6.27495721e-002 1.03416279e-001 3.48682612e-001 3.48682612e-001
      1.57577574e-001 4.42666449e-002 2.52107568e-002 1.83908567e-002
      1.03952866e-002 2.92940512e-002 8.68593901e-002 3.00807089e-001
      3.29197854e-001 3.29197854e-001 7.28389546e-002 4.31427769e-002
      2.43239924e-002 3.56214051e-003 5.87717071e-003 6.69366941e-002
      2.36343637e-001 3.29197854e-001 2.15353265e-001 5.40024862e-002
      1.72009002e-002 4.32395330e-003 2.05889903e-002 2.70269103e-002
      8.70133862e-002 3.29197854e-001 3.29197854e-001 2.24738419e-001
      3.98446359e-002 1.85287632e-002 8.81710462e-003 9.39496048e-003
      5.04028378e-003 3.21787633e-002 2.07655370e-001 3.29197854e-001
      1.52051464e-001 3.04198656e-002 4.21936344e-003 1.26806712e-002
      7.20317569e-003 1.99747346e-002 5.43079479e-003 3.47862482e-001
      3.82291794e-001 9.26856920e-002 1.26263071e-002 1.03024961e-002
      9.28891916e-003 8.94379336e-003 8.96450318e-003 1.21187149e-002
      2.49762475e-001 3.82291794e-001 9.08585712e-002 2.01608725e-002
      1.45099126e-002 9.86845233e-003 8.18225741e-003 6.96218433e-003
      5.26127918e-003 3.47801983e-001 3.82291794e-001 1.07371680e-001
      8.78167804e-003 2.51962151e-003 4.43760492e-003 2.21514776e-002
      1.11753074e-002 1.23905921e-002 2.28983179e-001 3.82291794e-001
      1.50821999e-001 1.86737385e-002 2.12145317e-002 3.69837438e-003
      3.60687971e-002 1.17568690e-002 2.11425405e-002 2.75210679e-001
      3.43319952e-001 1.16773449e-001 2.36981977e-002 2.84804087e-002
      3.18116471e-002 8.71389732e-002 2.79176664e-002 5.33235744e-002
      2.72392243e-001 3.43319952e-001 1.84244305e-001 5.52785844e-002
      3.69591340e-002 9.65062156e-002 5.79992980e-002 2.99022552e-002
      2.12307684e-002 2.10845232e-001 3.43319952e-001 2.25587741e-001
      7.10282251e-002 7.60803670e-002 3.48749161e-002 1.43724799e-001
      7.81377777e-002 5.34201749e-002 1.90677404e-001 3.43319952e-001
      2.52784491e-001 1.15792520e-001 1.18704729e-001 1.69930801e-001
      2.89090946e-002 1.22142583e-002 5.58086522e-002 3.26868743e-001
      3.34013939e-001 2.78711081e-001 3.87736708e-002 1.46910576e-002
      5.10447659e-002 5.80312032e-003 7.17595033e-003 2.07220148e-002
      2.13922158e-001 3.34013939e-001 1.88980103e-001 2.88064554e-002
      3.02903424e-003 8.73969402e-003 6.59634471e-002 4.76677716e-002
      9.18678343e-002 3.34013939e-001 3.34013939e-001 1.88291475e-001
      5.22696041e-002 6.66190907e-002 1.18231639e-001 6.46767952e-003
      8.66012555e-003 6.02353439e-002 2.74200320e-001 3.34013939e-001
      1.04865417e-001 3.21011841e-002 1.55416727e-002 1.08254813e-002</_>
    <_>
      3.41027938e-002 4.06122617e-002 6.57091364e-002 7.30635151e-002
      3.64041060e-001 2.30064571e-001 9.67890471e-002 4.95741814e-002
      3.24813053e-002 1.68404263e-002 2.17685923e-002 3.00454590e-002
      5.11591993e-002 3.64041060e-001 2.90548801e-001 4.95100021e-002
      1.41977444e-002 1.32712061e-002 5.36173061e-002 7.08732158e-002
      6.43247589e-002 1.14860177e-001 3.64041060e-001 3.02824795e-001
      1.53825432e-001 3.87909748e-002 4.55698222e-002 1.67653281e-002
      1.13155758e-002 2.39448734e-002 8.36645812e-002 3.64041060e-001
      3.64041060e-001 1.05220370e-001 2.12967005e-002 1.57443639e-002
      3.11134160e-002 2.08655037e-002 7.21102208e-002 1.34234086e-001
      4.60961670e-001 4.60961670e-001 9.84018743e-002 6.22140281e-002
      3.13585475e-002 4.11105007e-002 2.74503790e-002 4.03354876e-002
      5.02290800e-002 6.73054755e-002 6.99407905e-002 6.07937612e-002
      5.90349399e-002 4.89564426e-002 3.20963226e-002 4.63711843e-002
      7.84149468e-002 1.51875183e-001 4.60961670e-001 4.60961670e-001
      1.13770664e-001 5.69120161e-002 4.29789163e-002 6.47479743e-002
      5.59311323e-002 5.12360595e-002 6.44119680e-002 9.52713266e-002
      4.43639942e-002 2.53701005e-002 3.33962888e-002 5.81129044e-002
      3.16836126e-002 1.53262885e-002 1.80779677e-002 3.01354621e-002
      7.57048354e-002 2.47229747e-002 3.60568240e-002 2.73613688e-002
      3.46085764e-002 1.17763914e-001 5.05193323e-002 1.38196886e-001
      2.79780626e-001 4.42560673e-001 4.42560673e-001 1.00200497e-001
      5.81999198e-002 7.69409239e-002 4.80857119e-002 3.81825827e-002
      2.52518915e-002 5.43041416e-002 6.34311587e-002 2.11773459e-002
      2.30999514e-002 1.12722879e-002 3.93126160e-002 7.19820783e-002
      3.26886401e-002 2.73910463e-002 1.82226002e-001 4.42560673e-001
      4.42560673e-001 1.00887649e-001 1.12595027e-002 4.88539189e-002
      5.03537953e-002 6.60659298e-002 4.19692993e-002 8.09730664e-002
      3.94454777e-001 2.41131783e-001 1.26043320e-001 1.53788514e-002
      2.57407092e-002 1.01908846e-002 1.31440219e-002 1.96689572e-002
      5.69550283e-002 3.94454777e-001 1.79182783e-001 6.32995442e-002
      8.65947083e-003 5.19411266e-003 2.33216621e-002 5.34406789e-002
      7.01785386e-002 1.77861243e-001 3.94454777e-001 3.80716473e-001
      1.55159503e-001 2.96083894e-002 1.32559985e-002 2.14332994e-003
      2.23088339e-002 4.17434536e-002 1.04173072e-001 3.94454777e-001
      1.29521310e-001 5.61177433e-002 1.85525138e-002 3.51119367e-003
      2.02132836e-002 3.38235684e-002 2.97262650e-002 9.09190625e-002
      6.36811972e-001 2.87675649e-001 7.16521293e-002 2.08727270e-002
      1.86416730e-002 4.89132740e-002 4.09597680e-002 3.66512053e-002
      5.36333509e-002 8.87227580e-002 2.21628826e-002 2.49688327e-002
      2.10051741e-002 3.71688418e-002 1.24447206e-002 1.27386227e-002
      1.75061487e-002 1.74167156e-001 6.36811972e-001 1.10906638e-001
      6.18834496e-002 1.97432302e-002 1.12806121e-002 2.63782982e-002
      1.99285932e-002 4.45891470e-002 2.99624372e-002 1.00123607e-001
      1.83750875e-002 3.76272388e-002 1.73284151e-002 2.10897233e-002
      4.26496416e-002 2.86629647e-002 2.83198114e-002 4.78309095e-002
      5.33148050e-002 1.66299250e-002 2.41795834e-002 1.29775908e-002
      2.80576702e-002 3.24820317e-002 1.51402084e-002 3.45047340e-002
      2.11479917e-001 4.75516766e-001 4.15361792e-001 7.98894763e-002
      1.07861748e-002 2.08555181e-002 5.05186655e-002 2.09347848e-002
      4.37227823e-002 2.78059710e-002 6.58437684e-002 3.60184163e-002
      3.08311284e-002 8.39946512e-003 3.20742428e-002 5.99143617e-002
      2.81441007e-002 1.09169506e-001 3.22199762e-001 4.75516766e-001
      3.98559779e-001 1.03455566e-001 2.19879653e-002 4.96368073e-002
      1.90021433e-002 2.65200157e-002 3.85185778e-002 1.81740001e-001
      3.66630971e-001 2.81497300e-001 1.02554783e-001 2.61935573e-002
      1.30753098e-002 1.37974741e-002 1.30476989e-002 2.34207548e-002
      1.79715440e-001 3.66630971e-001 8.46761093e-002 4.44213822e-002
      1.87606048e-002 7.59825017e-003 2.90716160e-002 1.53371952e-002
      2.29715947e-002 1.88862771e-001 3.66630971e-001 3.66630971e-001
      7.93084875e-002 1.71097927e-002 2.86942311e-002 2.33293474e-002
      9.20522865e-003 1.58660412e-002 3.18090260e-001 3.66630971e-001
      8.74801576e-002 2.00476628e-002 1.33135766e-002 1.77756604e-002
      2.26121526e-002 2.19378918e-002 3.02117914e-002 3.66348058e-001
      5.08982599e-001 9.33213606e-002 4.59481329e-002 1.60734467e-002
      1.87702999e-002 3.47817950e-002 2.95712762e-002 4.10191864e-002
      1.06382715e-002 8.54794905e-002 2.21288037e-002 3.52621898e-002
      1.73864048e-002 2.54084356e-002 6.23368733e-002 3.61740626e-002
      4.91756648e-002 5.08982599e-001 5.08982599e-001 8.02114606e-002
      5.69961704e-002 3.02647129e-002 3.08148339e-002 6.31511956e-002
      7.02669770e-002 7.28578866e-002 4.07397151e-002 1.06526017e-001
      2.54727453e-002 6.52972460e-002 4.59420420e-002 5.37283942e-002
      7.87775815e-002 4.65073660e-002 6.66748956e-002 3.64210941e-002
      9.19380188e-002 6.51381016e-002 5.18017225e-002 1.96794085e-002
      6.07446879e-002 1.44300506e-001 1.02274060e-001 2.70449042e-001
      3.44606429e-001 3.64881158e-001 3.64881158e-001 2.46956825e-001
      1.18263476e-001 1.94016680e-001 7.40635321e-002 7.77918398e-002
      1.17920540e-001 8.54662210e-002 1.21913940e-001 4.74796742e-002
      6.19854666e-002 4.28451449e-002 6.09161779e-002 1.35254368e-001
      1.19458698e-001 2.13920563e-001 1.14167228e-001 3.64881158e-001
      1.09361686e-001 1.55437887e-001 1.29574597e-001 1.54996678e-001</_>
    <_>
      2.58802995e-002 7.17403442e-002 1.03411719e-001 1.43813029e-001
      3.06317449e-001 3.06317449e-001 1.63441926e-001 4.67961691e-002
      2.08322238e-003 3.05964611e-002 5.74320033e-002 8.95992666e-002
      1.18644565e-001 3.06317449e-001 1.81228116e-001 1.11357749e-001
      5.06122112e-002 1.22481193e-002 4.73641865e-002 6.68679774e-002
      1.45024866e-001 1.75816715e-001 3.06317449e-001 3.06317449e-001
      2.25395650e-001 5.98021410e-002 2.42768824e-002 3.12011465e-002
      4.34679575e-002 8.38668048e-002 1.38425604e-001 3.06317449e-001
      3.04084390e-001 2.28870228e-001 7.60088786e-002 1.58187337e-002
      7.35183507e-002 5.36220446e-002 8.16272944e-002 1.60647407e-001
      2.61487007e-001 2.09812835e-001 2.49045715e-001 1.11163445e-001
      9.44809616e-002 7.46156722e-002 6.47220463e-002 1.47880271e-001
      2.61516035e-001 2.61516035e-001 1.77310959e-001 1.53915167e-001
      1.36304602e-001 1.65972039e-001 4.09917049e-002 6.16114475e-002
      1.19757056e-001 2.61516035e-001 2.61516035e-001 2.61516035e-001
      2.61516035e-001 9.48942527e-002 3.25041004e-002 7.12337494e-002
      7.38437101e-002 1.23645604e-001 2.00308979e-001 2.61516035e-001
      1.34834781e-001 1.24973804e-001 9.43115205e-002 1.03946857e-001
      7.08273500e-002 4.48459089e-002 5.13059124e-002 1.02425091e-001
      2.21404061e-001 4.60638292e-002 5.91869950e-002 5.94671443e-002
      6.49031475e-002 3.48648131e-001 1.08880095e-001 4.07755412e-002
      2.11894408e-001 5.32571912e-001 5.66496477e-002 9.18112546e-002
      5.79470731e-002 1.54400781e-001 3.00582889e-002 3.55670601e-002
      3.40969712e-002 5.66623770e-002 2.13567123e-001 2.00269632e-002
      1.38864946e-002 2.92892568e-002 2.63834503e-002 1.26880139e-001
      2.64957305e-002 1.96031760e-002 2.09128812e-001 5.32571912e-001
      7.71092102e-002 1.58336759e-002 1.58664100e-002 6.62904009e-002
      5.67632541e-003 7.76906637e-003 1.12638257e-001 1.06356345e-001
      4.62288827e-001 1.28097847e-001 6.70374334e-002 3.33628319e-002
      2.44558156e-002 2.92587094e-003 5.32425195e-003 5.45910634e-002
      8.13548937e-002 4.62288827e-001 1.16895363e-001 5.97960278e-002
      2.70693079e-002 1.55365998e-002 9.16767400e-004 2.98968959e-003
      6.64129332e-002 8.62611458e-002 4.62288827e-001 1.70038223e-001
      2.62655206e-002 1.72792226e-002 1.06033292e-002 1.39452924e-003
      4.06029588e-003 3.65467258e-002 8.39082226e-002 4.62288827e-001
      1.21422611e-001 2.75751594e-002 1.20116547e-002 8.05240124e-003
      7.66660413e-003 2.77719721e-002 6.84150830e-002 3.37465137e-001
      3.96673173e-001 2.65715003e-001 1.06077716e-001 1.97541099e-002
      4.72256774e-003 2.73617599e-002 1.67612005e-002 4.79784720e-002
      1.60952851e-001 2.76798159e-001 1.05577454e-001 5.64466491e-002
      3.06127202e-002 3.69774811e-002 2.04600878e-002 4.75549065e-002
      1.08057544e-001 3.87666345e-001 3.96673173e-001 3.15438509e-001
      8.64786655e-002 9.06473212e-003 3.16808820e-002 2.84701735e-002
      2.53288280e-002 6.64327964e-002 1.72717959e-001 1.79983824e-001
      1.13224395e-001 4.02012877e-002 1.97902769e-002 3.94566432e-002
      8.30097031e-003 5.02758846e-003 7.02356081e-003 1.30649609e-002
      1.49987295e-001 1.58113949e-002 8.91763438e-003 9.48900823e-003
      9.99262277e-003 1.24659818e-002 3.23127420e-003 1.51723046e-002
      5.51258251e-002 6.74462378e-001 8.65781158e-002 6.95063313e-003
      4.20777360e-003 9.89760831e-003 1.36581305e-002 8.34007561e-003
      7.12130126e-003 1.62697546e-002 1.53487980e-001 1.73903871e-002
      9.03670397e-003 7.64145982e-003 8.21123272e-003 5.53977378e-002
      2.00701393e-002 1.65644065e-002 5.91694266e-002 6.74462378e-001
      1.29388884e-001 4.21445910e-003 1.27579411e-002 1.53032811e-002
      3.26285633e-004 8.66177550e-004 6.71516452e-003 9.44632441e-002
      4.61398333e-001 1.37381434e-001 1.86506403e-003 9.40823578e-004
      3.43429856e-004 2.85002915e-003 3.28351837e-003 8.15929845e-003
      8.58047828e-002 4.61398333e-001 7.87008405e-002 5.64576872e-003
      2.36029830e-003 5.58680203e-003 4.07999527e-004 4.60498082e-003
      2.58824788e-002 2.25781053e-001 4.61398333e-001 1.12200283e-001
      4.16134149e-002 2.24660467e-002 1.07790343e-002 3.22913751e-003
      4.13157186e-003 1.94545425e-002 1.51311487e-001 4.61398333e-001
      1.07105985e-001 2.37912312e-002 1.40812136e-002 1.15287770e-002
      6.95221648e-002 7.37056956e-002 1.80103302e-001 4.55398291e-001
      4.66194838e-001 2.37856582e-001 7.69546181e-002 2.82737669e-002
      1.31356940e-001 4.99348976e-002 5.36493473e-002 1.28493056e-001
      1.74551755e-001 1.22834332e-001 1.02979116e-001 3.87524180e-002
      3.19903940e-002 6.78057373e-002 7.32222199e-002 1.62367634e-002
      6.53105751e-002 2.09694788e-001 4.66194838e-001 2.37057477e-001
      5.88228814e-002 3.79144177e-002 1.03538714e-001 4.73407730e-002
      3.14215831e-002 5.92819341e-002 5.19233905e-002 6.64761588e-002
      2.59734616e-002 3.24496180e-002 2.86463145e-002 5.26974685e-002
      1.40239792e-002 1.58606991e-002 1.52457897e-002 2.31100842e-002
      1.36070311e-001 2.82907579e-002 1.23361507e-002 1.66628081e-002
      8.54024012e-003 4.58768271e-002 3.66843194e-002 1.28723821e-002
      6.62995279e-002 6.41590476e-001 2.09309742e-001 2.22211555e-002
      3.82740088e-002 1.70693006e-002 7.55881332e-003 1.14783896e-002
      1.21927960e-002 1.02563538e-002 1.17975183e-001 2.35290844e-002
      1.50730778e-002 1.77345220e-002 8.60092044e-003 7.87247811e-003
      1.58463288e-002 3.87541321e-003 6.56985715e-002 6.41590476e-001
      1.91390246e-001 6.17356226e-002 1.59221858e-001 9.61498916e-002</_>
    <_>
      1.71686962e-001 2.10087448e-002 1.83010325e-002 4.87607066e-003
      4.03653793e-002 2.88388338e-002 1.69597015e-001 2.96265334e-001
      2.96265334e-001 2.96265334e-001 5.04443012e-002 1.72717255e-002
      5.29539352e-003 3.58741954e-002 7.34086428e-003 4.97676283e-002
      1.88575476e-001 2.96265334e-001 2.96265334e-001 2.22023614e-002
      2.60041207e-002 1.24525819e-002 2.34956279e-001 1.29601657e-001
      1.28591493e-001 2.06122339e-001 2.96265334e-001 2.16461346e-001
      3.70612964e-002 3.89642157e-002 5.05009368e-002 2.58044541e-001
      1.00708060e-001 7.83532634e-002 1.06602699e-001 2.96265334e-001
      3.18925649e-001 4.51364256e-002 2.53205076e-002 7.67923379e-003
      2.42877658e-002 2.84301746e-003 1.20724943e-002 5.05076163e-002
      3.18925649e-001 3.18925649e-001 1.96055286e-002 1.96648892e-002
      6.73261844e-003 2.88645476e-002 2.71431077e-003 5.40227480e-002
      2.38427073e-001 3.18925649e-001 3.18925649e-001 2.69059539e-002
      7.31596574e-002 6.91080093e-002 2.56151050e-001 5.61849289e-002
      2.06237752e-002 3.57748829e-002 2.86630422e-001 3.18925649e-001
      1.88470427e-002 6.21357597e-002 3.74165662e-002 1.76136300e-001
      4.04659845e-002 4.52275611e-002 1.16430134e-001 3.18925649e-001
      3.03489119e-001 1.62336491e-002 1.30052352e-002 4.68101306e-003
      2.86084395e-002 4.06229729e-003 4.19186167e-002 1.57572120e-001
      3.03489119e-001 3.03489119e-001 2.17217878e-001 9.21710059e-002
      5.29794674e-003 3.78454551e-002 4.27555060e-003 8.28527380e-003
      1.76055208e-002 3.03489119e-001 3.03489119e-001 4.84977802e-003
      9.64920409e-003 2.43062750e-002 2.52965152e-001 4.67749275e-002
      8.89479145e-002 8.23845714e-002 3.03489119e-001 3.03489119e-001
      8.38209614e-002 3.46841067e-002 3.22785154e-002 2.71907359e-001
      4.77862135e-002 8.15388039e-002 3.14361379e-002 3.03489119e-001
      1.31391287e-001 1.30711598e-002 1.08416295e-002 2.67784111e-002
      2.67251343e-001 2.67251343e-001 1.98730752e-001 8.20908174e-002
      1.63316637e-001 2.79086754e-002 2.26575565e-002 2.81122066e-002
      7.35058635e-002 2.67251343e-001 2.67251343e-001 1.84576064e-001
      4.00972292e-002 3.24874669e-002 3.71924676e-002 9.97288898e-003
      4.44745785e-003 2.87567582e-002 2.67251343e-001 2.67251343e-001
      2.67251343e-001 1.48091037e-002 4.89378311e-002 2.53385514e-001
      2.13935766e-002 2.82199215e-002 7.14400932e-002 2.67251343e-001
      2.67251343e-001 2.67251343e-001 2.78595481e-002 2.67251343e-001
      1.19130477e-001 1.71074141e-002 6.15595356e-002 7.64353797e-002
      3.07196885e-001 2.21379936e-001 1.37433231e-001 9.44739394e-003
      7.25839585e-002 3.07196885e-001 1.08615449e-002 4.76942398e-002
      3.37707065e-002 3.07196885e-001 1.43427029e-001 1.10281006e-001
      1.18944217e-002 2.88119227e-001 2.52565563e-001 3.64013240e-002
      8.11148211e-002 6.43233135e-002 3.07196885e-001 2.51217872e-001
      1.86256841e-001 1.10088410e-002 2.92589128e-001 6.93061799e-002
      2.46835686e-002 6.03546128e-002 3.54952738e-002 3.07196885e-001
      1.51344270e-001 1.04073152e-001 4.59370390e-003 6.96653649e-002
      1.98194474e-001 4.14909096e-003 8.09635222e-003 2.51094569e-002
      3.09210628e-001 1.40855446e-001 1.15174882e-001 1.91760268e-002
      2.38840416e-001 4.73830886e-002 1.22124376e-002 1.54135153e-002
      4.12185267e-002 3.09210628e-001 1.76693261e-001 1.47859007e-001
      2.92296652e-002 7.35400319e-002 3.36343050e-002 5.28336735e-003
      5.40445419e-003 8.64120014e-003 3.09210628e-001 2.11098716e-001
      1.67156607e-001 1.51353227e-002 4.35660221e-002 2.96029925e-001
      1.78399086e-002 7.73613015e-003 2.39047073e-002 3.09210628e-001
      2.99760908e-001 2.72555947e-001 3.50890420e-002 3.00707310e-001
      1.01948939e-001 8.12252145e-003 5.19856811e-003 1.34376930e-002
      2.26435423e-001 1.94842741e-001 1.74499914e-001 3.58209498e-002
      1.33211374e-001 3.23005646e-001 2.64376048e-002 3.36488746e-002
      3.35787311e-002 2.42395326e-001 2.62496829e-001 2.87311614e-001
      6.59795552e-002 3.23005646e-001 3.23005646e-001 9.77525860e-003
      5.18503459e-003 4.47815564e-003 3.85604501e-002 1.30737536e-002
      6.17001951e-003 2.14726552e-002 3.23005646e-001 3.23005646e-001
      1.20623084e-002 8.26398749e-003 1.60631095e-003 1.17462352e-002
      1.77493244e-002 1.64940916e-002 2.51648799e-002 3.23005646e-001
      3.32113832e-001 6.92942441e-002 1.13151222e-001 6.43637106e-002
      3.32113832e-001 1.01614341e-001 7.71589652e-002 2.11716685e-002
      3.32113832e-001 1.69035971e-001 5.38748689e-002 8.54051188e-002
      5.15305884e-002 3.32113832e-001 5.41115440e-002 2.09431536e-002
      7.17540318e-003 1.60176948e-001 3.32113832e-001 1.86167900e-002
      1.17961792e-002 6.23642001e-003 2.42497083e-002 5.27353399e-003
      1.11483727e-002 1.63073037e-002 3.32113832e-001 3.32113832e-001
      5.11439517e-002 1.02307703e-002 7.86784571e-003 2.79399771e-002
      1.88267755e-003 5.63972071e-003 1.34558547e-002 3.32113832e-001
      7.34029934e-002 6.46924600e-003 2.72292458e-003 7.84849189e-003
      2.81650811e-001 1.21713765e-001 1.08978972e-001 2.98898127e-002
      1.03695884e-001 3.32969636e-001 1.14199556e-002 4.26985975e-003
      1.10265575e-002 3.32969636e-001 1.73090428e-001 2.00452149e-001
      5.94398379e-002 3.32969636e-001 3.32969636e-001 1.08434208e-001
      3.44805047e-003 2.63089431e-003 2.31484175e-002 1.00280633e-002
      8.35205521e-003 1.92833375e-002 3.32969636e-001 3.32969636e-001
      7.78650194e-002 3.88176320e-003 1.05690199e-003 5.44520132e-002
      1.22431377e-002 1.59283876e-002 3.43711711e-002 3.32969636e-001</_>
    <_>
      3.08818948e-002 8.82761180e-003 5.43942628e-003 3.90184410e-002
      2.99232632e-001 1.39480099e-001 9.00635421e-002 4.10030968e-002
      2.77038161e-002 8.06044638e-002 1.12126106e-002 9.42077395e-003
      1.63662676e-002 1.82513505e-001 1.72121391e-001 2.99232632e-001
      2.99232632e-001 1.29414454e-001 2.99232632e-001 5.89902624e-002
      5.56385815e-002 9.71835181e-002 2.99232632e-001 1.16612755e-001
      4.05939370e-002 9.45205092e-002 2.71255404e-001 2.99232632e-001
      1.84497889e-002 1.88010465e-002 3.12717855e-002 2.06140220e-001
      1.28040418e-001 1.16849758e-001 2.50941604e-001 2.99232632e-001
      2.04432473e-001 2.09794715e-002 5.28983027e-003 5.18961810e-003
      6.75193816e-002 6.18547238e-002 2.55892962e-001 2.78981626e-001
      2.78981626e-001 2.78981626e-001 2.40606382e-001 4.97613028e-002
      2.19907612e-003 3.10064144e-002 1.80565193e-002 7.77048394e-002
      1.92866772e-001 2.78981626e-001 2.46539176e-001 1.80186536e-002
      9.24029946e-003 1.80903636e-002 1.44991368e-001 1.13658600e-001
      1.15963615e-001 2.68597543e-001 2.78981626e-001 2.78981626e-001
      1.25925496e-001 2.88120657e-002 5.80340698e-002 1.32978857e-001
      4.88562919e-002 2.89919488e-002 9.65902582e-002 2.78981626e-001
      2.90108532e-001 2.90108532e-001 1.70028016e-001 2.90798140e-003
      2.58978214e-002 3.97644565e-003 2.62842118e-003 2.31537223e-002
